{"learner":{"attributes":{"best_iteration":"86","best_score":"1.1632952739397684"},"feature_names":["patient_age","patient_sex","modality_code","body_site_code","indication_category","symptom_duration_days","has_red_flags","cancer_history","neurological_deficit","fever_present","is_pregnant","has_contrast_allergy","egfr_value","on_anticoagulation","on_metformin","prior_imaging_count_90d","days_since_last_imaging","same_modality_prior_30d","same_body_site_prior_30d","urgency_level","comorbidity_count","conservative_tx_tried","imaging_in_problem_list"],"feature_types":["float","float","float","float","float","float","float","float","float","float","float","float","float","float","float","float","float","float","float","float","float","float","float"],"gradient_booster":{"model":{"gbtree_model_param":{"num_parallel_tree":"1","num_trees":"107"},"iteration_indptr":[0,1,2,3,4,5,6,7,8,9,10,11,12,13,14,15,16,17,18,19,20,21,22,23,24,25,26,27,28,29,30,31,32,33,34,35,36,37,38,39,40,41,42,43,44,45,46,47,48,49,50,51,52,53,54,55,56,57,58,59,60,61,62,63,64,65,66,67,68,69,70,71,72,73,74,75,76,77,78,79,80,81,82,83,84,85,86,87,88,89,90,91,92,93,94,95,96,97,98,99,100,101,102,103,104,105,106,107],"tree_info":[0,0,0,0,0,0,0,0,0,0,0,0,0,0,0,0,0,0,0,0,0,0,0,0,0,0,0,0,0,0,0,0,0,0,0,0,0,0,0,0,0,0,0,0,0,0,0,0,0,0,0,0,0,0,0,0,0,0,0,0,0,0,0,0,0,0,0,0,0,0,0,0,0,0,0,0,0,0,0,0,0,0,0,0,0,0,0,0,0,0,0,0,0,0,0,0,0,0,0,0,0,0,0,0,0,0,0],"trees":[{"base_weights":[2.7342372E-2,3.4480202E-1,-2.3250923E0,6.770593E-2,2.5387933E0,-2.5840552E0,-2.5771865E-1,-9.663941E-1,4.685966E-1,3.1662154E0,2.060509E0,-3.1362736E-1,-2.3766935E0,-4.35402E-1,4.505191E-2,-4.0467393E-1,-1.3179972E0,4.9367987E-2,6.8250144E-1,3.2689977E-1,2.0848036E-1,1.6984783E0,2.8602365E-1,1.6537104E-2,-2.4133985E0,-2.6565275E-1,-1.4897962E-1,-2.7319482E-1,-1.4522669E0,-1.2321048E0,-2.3318074E0,2.6991853E-1,-2.5277677E-1,6.0171556E-1,2.6338026E-1,1.7653811E0,2.0563176E-2,-2.8060915E0,-2.246251E0,3.6189307E-2,-7.651804E-1,3.450397E-2,-3.5868358E-2,-2.109307E-1,-8.231502E-2,-1.0695255E-1,-1.7045313E-1,-2.8413722E-1,-1.1204535E-1,9.571995E-4,1.3128433E-1,1.1459964E-1,3.798071E-2,1.9486439E-1,1.1751524E-1,-2.8705427E-1,-1.16113834E-1,-1.7461632E-1,-2.4027799E-1,-1.2715247E-1,-2.1896552E-2],"categories":[],"categories_nodes":[],"categories_segments":[],"categories_sizes":[],"default_left":[0,0,0,0,0,0,0,0,0,0,0,0,0,0,0,0,0,0,0,0,0,0,0,0,0,0,0,0,0,0,0,0,0,0,0,0,0,0,0,0,0,0,0,0,0,0,0,0,0,0,0,0,0,0,0,0,0,0,0,0,0],"id":0,"left_children":[1,3,5,7,9,11,13,15,17,19,21,-1,23,25,-1,27,29,31,33,-1,-1,35,-1,-1,37,39,-1,41,43,45,47,49,-1,51,-1,53,-1,55,57,-1,59,-1,-1,-1,-1,-1,-1,-1,-1,-1,-1,-1,-1,-1,-1,-1,-1,-1,-1,-1,-1],"loss_changes":[2.0789568E3,1.49086E3,1.7625842E2,9.0373157E2,7.547717E1,2.5660278E1,4.976642E0,1.19573425E2,1.4077261E2,5.6539307E0,4.0720642E1,0E0,2.0964722E1,4.977148E0,0E0,3.1936535E1,2.9337952E1,3.0283926E2,1.620347E2,0E0,0E0,1.0625946E1,0E0,0E0,7.303711E0,9.0945835E0,0E0,1.1276914E1,8.717705E0,2.4551514E1,1.3703552E1,1.3317241E2,0E0,1.2019269E2,0E0,8.971527E0,0E0,2.624878E0,7.600891E0,0E0,3.997695E0,0E0,0E0,0E0,0E0,0E0,0E0,0E0,0E0,0E0,0E0,0E0,0E0,0E0,0E0,0E0,0E0,0E0,0E0,0E0,0E0],"parents":[2147483647,0,0,1,1,2,2,3,3,4,4,5,5,6,6,7,7,8,8,9,9,10,10,12,12,13,13,15,15,16,16,17,17,18,18,21,21,24,24,25,25,27,27,28,28,29,29,30,30,31,31,33,33,35,35,37,37,38,38,40,40],"right_children":[2,4,6,8,10,12,14,16,18,20,22,-1,24,26,-1,28,30,32,34,-1,-1,36,-1,-1,38,40,-1,42,44,46,48,50,-1,52,-1,54,-1,56,58,-1,60,-1,-1,-1,-1,-1,-1,-1,-1,-1,-1,-1,-1,-1,-1,-1,-1,-1,-1,-1,-1],"split_conditions":[1E0,1E0,1E0,2E0,3E0,2E0,2.77E2,1E0,2E0,1E0,1E0,-3.1362736E-1,5E0,2.68E2,4.505191E-2,1E0,1E0,1E0,1E0,3.2689977E-1,2.0848036E-1,1E0,2.8602365E-1,1.6537104E-2,2E0,3E0,-1.4897962E-1,3E1,4.4E1,2.7E2,2.27E2,1E0,-2.5277677E-1,3E0,2.6338026E-1,2.77E2,2.0563176E-2,7.7E1,3E0,3.6189307E-2,1.02E2,3.450397E-2,-3.5868358E-2,-2.109307E-1,-8.231502E-2,-1.0695255E-1,-1.7045313E-1,-2.8413722E-1,-1.1204535E-1,9.571995E-4,1.3128433E-1,1.1459964E-1,3.798071E-2,1.9486439E-1,1.1751524E-1,-2.8705427E-1,-1.16113834E-1,-1.7461632E-1,-2.4027799E-1,-1.2715247E-1,-2.1896552E-2],"split_indices":[17,6,6,4,3,4,5,4,2,18,7,0,0,5,0,18,18,10,10,0,0,18,0,0,2,3,0,5,0,5,5,9,0,2,0,5,0,0,2,0,5,0,0,0,0,0,0,0,0,0,0,0,0,0,0,0,0,0,0,0,0],"split_type":[0,0,0,0,0,0,0,0,0,0,0,0,0,0,0,0,0,0,0,0,0,0,0,0,0,0,0,0,0,0,0,0,0,0,0,0,0,0,0,0,0,0,0,0,0,0,0,0,0,0,0,0,0,0,0,0,0,0,0,0,0],"sum_hessian":[2.782E3,2.452E3,3.3E2,2.178E3,2.74E2,2.93E2,3.7E1,6.08E2,1.57E3,1.16E2,1.58E2,7.6E1,2.17E2,3E1,7E0,2.35E2,3.73E2,5.31E2,1.039E3,1.04E2,1.2E1,1.11E2,4.7E1,3E0,2.14E2,2.7E1,3E0,2.1E2,2.5E1,3.46E2,2.7E1,4.9E2,4.1E1,9.99E2,4E1,1.06E2,5E0,5.9E1,1.55E2,1.2E1,1.5E1,2.5E1,1.85E2,1.1E1,1.4E1,2.6E2,8.6E1,1.8E1,9E0,3.93E2,9.7E1,2.88E2,7.11E2,7.9E1,2.7E1,5.6E1,3E0,4E1,1.15E2,7E0,8E0],"tree_param":{"num_deleted":"0","num_feature":"23","num_nodes":"61","size_leaf_vector":"1"}},{"base_weights":[5.047303E-3,2.834922E-1,-2.0702662E0,1.7698011E-1,2.6783755E0,-2.2139132E0,1.3037641E-1,-6.272219E-1,4.1203254E-1,2.7229586E0,8.580613E-2,-7.2928004E-2,-2.2307198E0,2.375385E-1,-2.4004996E-2,-5.6332856E-1,-2.776672E0,3.7684333E-1,2.638316E-1,2.7819258E-1,1.6772233E-1,-2.2436807E0,-6.727477E-2,4.6503708E-2,1.48429E-1,-7.727885E-1,-2.885479E-1,-3.3518964E-1,-1.6261446E-1,2.3375662E-2,5.424298E-1,-2.261659E0,-9.661391E-2,5.904459E-3,2.1509279E-2,-7.224574E-2,-2.7044898E-1,-4.726069E-3,-6.76823E-2,1.4303932E-2,-3.112722E-1,4.762289E-2,2.3791838E-1,-2.5338206E-1,-2.1219707E-1],"categories":[],"categories_nodes":[],"categories_segments":[],"categories_sizes":[],"default_left":[0,0,0,0,0,0,0,0,0,0,0,0,0,0,0,0,0,0,0,0,0,0,0,0,0,0,0,0,0,0,0,0,0,0,0,0,0,0,0,0,0,0,0,0,0],"id":1,"left_children":[1,3,5,7,9,11,13,15,17,19,-1,-1,21,23,-1,25,27,29,-1,-1,-1,31,-1,-1,33,35,37,-1,-1,39,41,43,-1,-1,-1,-1,-1,-1,-1,-1,-1,-1,-1,-1,-1],"loss_changes":[1.6022377E3,6.22921E2,1.0418286E2,4.4294434E2,5.7455444E0,5.762451E0,8.9037895E-1,7.088966E1,1.4073688E2,1.1162109E0,0E0,0E0,4.3372803E0,2.1425712E-1,0E0,2.9369537E1,3.9786987E0,1.0446437E2,0E0,0E0,0E0,4.4056396E0,0E0,0E0,4.330808E-2,2.6093033E1,2.0974913E1,0E0,0E0,2.1443138E2,1.4644073E2,5.4108887E0,0E0,0E0,0E0,0E0,0E0,0E0,0E0,0E0,0E0,0E0,0E0,0E0,0E0],"parents":[2147483647,0,0,1,1,2,2,3,3,4,4,5,5,6,6,7,7,8,8,9,9,12,12,13,13,15,15,16,16,17,17,21,21,24,24,25,25,26,26,29,29,30,30,31,31],"right_children":[2,4,6,8,10,12,14,16,18,20,-1,-1,22,24,-1,26,28,30,-1,-1,-1,32,-1,-1,34,36,38,-1,-1,40,42,44,-1,-1,-1,-1,-1,-1,-1,-1,-1,-1,-1,-1,-1],"split_conditions":[1E0,1E0,1E0,3E0,1E0,6E0,2.68E2,1E0,1E0,2.2E1,8.580613E-2,-7.2928004E-2,3.6E2,3E1,-2.4004996E-2,5E1,2E0,2E0,2.638316E-1,2.7819258E-1,1.6772233E-1,9E1,-6.727477E-2,4.6503708E-2,1.53E2,3.57E2,2.11E2,-3.3518964E-1,-1.6261446E-1,1E0,1E0,2E0,-9.661391E-2,5.904459E-3,2.1509279E-2,-7.224574E-2,-2.7044898E-1,-4.726069E-3,-6.76823E-2,1.4303932E-2,-3.112722E-1,4.762289E-2,2.3791838E-1,-2.5338206E-1,-2.1219707E-1],"split_indices":[17,8,8,3,11,0,5,11,7,12,0,0,5,0,0,0,2,2,0,0,0,12,0,0,5,5,5,0,0,11,10,2,0,0,0,0,0,0,0,0,0,0,0,0,0],"split_type":[0,0,0,0,0,0,0,0,0,0,0,0,0,0,0,0,0,0,0,0,0,0,0,0,0,0,0,0,0,0,0,0,0,0,0,0,0,0,0,0,0,0,0,0,0],"sum_hessian":[2.771E3,2.444E3,3.27E2,2.341E3,1.03E2,3.07E2,2E1,5.29E2,1.812E3,1E2,3E0,4E0,3.03E2,1.6E1,4E0,5.15E2,1.4E1,1.785E3,2.7E1,9.3E1,7E0,3E2,3E0,3E0,1.3E1,2.91E2,2.24E2,8E0,6E0,5.7E2,1.215E3,2.95E2,5E0,7E0,6E0,2.85E2,6E0,1.39E2,8.5E1,5.5E2,2E1,1.174E3,4.1E1,9.4E1,2.01E2],"tree_param":{"num_deleted":"0","num_feature":"23","num_nodes":"45","size_leaf_vector":"1"}},{"base_weights":[2.3437625E-2,-2.2275758E-1,1.9720066E0,1.08165056E-1,-1.5823576E0,2.2856386E0,4.9005944E-1,-7.472301E-1,4.522423E-1,-2.1883626E0,-1.3468832E0,2.820334E0,1.8874084E0,8.4908676E-1,6.902128E-3,-2.7642995E-1,-1.0234334E0,2.5267097E-1,6.4688206E-1,-2.0295122E0,-2.9002593E0,-1.4972035E0,-7.5049186E-1,3.1544158E-1,2.3516552E-1,1.4624522E0,2.5804152E0,1.0884885E0,2.840027E-1,-9.2294925E-1,6.949997E-1,-2.1092284E-1,-1.7267112E0,-1.337684E0,-8.0231994E-1,-2.8223476E-1,4.7208312E-1,4.4593668E-1,9.072629E-1,-2.3214426E0,-1.1791979E0,-3.3146325E-1,-2.0615482E0,1.531053E-1,-1.5404463E0,-3.1016517E-1,-4.921544E-1,1.5590634E0,6.4791775E-1,1.22292005E-1,2.632294E-1,1.5501572E-1,7.068094E-1,7.759052E-1,-4.4146135E-2,-5.2932125E-1,-1.454468E-1,2.475305E-1,1.3082819E-1,-1.0318816E-2,-6.642758E-2,-7.0820907E-3,-2.5261864E-1,-2.805053E-2,-1.4038733E-1,-7.2574E-2,-1.5903164E-1,8.111563E-2,3.6842644E-2,4.8913147E-2,-1.1128845E-2,9.4251975E-2,8.233085E-3,-1.9270717E-1,-2.5175664E-1,-1.734203E-1,-4.649122E-2,-9.8712444E-2,-2.5966436E-1,-2.7957354E-2,6.806775E-2,-2.2515061E-1,-1.477999E-1,-2.6208451E-2,-1.9345953E-1,1.6115001E-1,7.302711E-2,-5.227958E-2,1.1073551E-1,8.913843E-2,3.806082E-2,3.6575064E-2,9.670835E-2,-1.1935339E-1,8.791312E-3,4.0634405E-2,1.071327E-2],"categories":[],"categories_nodes":[],"categories_segments":[],"categories_sizes":[],"default_left":[0,0,0,0,0,0,0,0,0,0,0,0,0,0,0,0,0,0,0,0,0,0,0,0,0,0,0,0,0,0,0,0,0,0,0,0,0,0,0,0,0,0,0,0,0,0,0,0,0,0,0,0,0,0,0,0,0,0,0,0,0,0,0,0,0,0,0,0,0,0,0,0,0,0,0,0,0,0,0,0,0,0,0,0,0,0,0,0,0,0,0,0,0,0,0,0,0],"id":2,"left_children":[1,3,5,7,9,11,13,15,17,19,21,23,25,27,29,31,33,35,37,39,41,43,45,-1,-1,47,49,51,53,55,57,59,61,63,65,-1,67,69,71,73,75,-1,77,79,81,-1,83,85,87,-1,-1,-1,89,91,-1,93,-1,95,-1,-1,-1,-1,-1,-1,-1,-1,-1,-1,-1,-1,-1,-1,-1,-1,-1,-1,-1,-1,-1,-1,-1,-1,-1,-1,-1,-1,-1,-1,-1,-1,-1,-1,-1,-1,-1,-1,-1],"loss_changes":[1.3385765E3,1.1147766E3,1.4408032E2,5.868922E2,6.590784E1,4.9142456E1,9.622673E0,7.396805E1,5.498346E1,8.774292E0,3.0208374E1,8.941711E0,4.0291138E1,3.8826466E0,1.6614368E1,1.9677834E1,2.3727356E1,4.7608362E2,3.7079865E1,2.49628E1,2.7496338E-1,2.0356445E1,4.2453796E1,0E0,0E0,6.3236847E0,3.3920288E-1,2.5552406E0,4.3014097E0,1.3331671E0,3.636952E0,9.867285E0,1.1475977E1,9.723907E0,1.1528E1,0E0,2.2710068E1,9.912453E0,8.894287E0,1.1236877E0,1.1263233E1,0E0,2.8276024E0,2.0565643E0,8.421509E0,0E0,2.150807E1,2.28302E0,7.0918107E0,0E0,0E0,0E0,3.7645245E-1,6.1893463E-2,0E0,3.4952881E0,0E0,1.2809032E-1,0E0,0E0,0E0,0E0,0E0,0E0,0E0,0E0,0E0,0E0,0E0,0E0,0E0,0E0,0E0,0E0,0E0,0E0,0E0,0E0,0E0,0E0,0E0,0E0,0E0,0E0,0E0,0E0,0E0,0E0,0E0,0E0,0E0,0E0,0E0,0E0,0E0,0E0,0E0],"parents":[2147483647,0,0,1,1,2,2,3,3,4,4,5,5,6,6,7,7,8,8,9,9,10,10,11,11,12,12,13,13,14,14,15,15,16,16,17,17,18,18,19,19,20,20,21,21,22,22,25,25,26,26,27,27,28,28,29,29,30,30,31,31,32,32,33,33,34,34,36,36,37,37,38,38,39,39,40,40,42,42,43,43,44,44,46,46,47,47,48,48,52,52,53,53,55,55,57,57],"right_children":[2,4,6,8,10,12,14,16,18,20,22,24,26,28,30,32,34,36,38,40,42,44,46,-1,-1,48,50,52,54,56,58,60,62,64,66,-1,68,70,72,74,76,-1,78,80,82,-1,84,86,88,-1,-1,-1,90,92,-1,94,-1,96,-1,-1,-1,-1,-1,-1,-1,-1,-1,-1,-1,-1,-1,-1,-1,-1,-1,-1,-1,-1,-1,-1,-1,-1,-1,-1,-1,-1,-1,-1,-1,-1,-1,-1,-1,-1,-1,-1,-1],"split_conditions":[1E0,1E0,1E0,2E0,2E0,3E0,3E0,1E0,4.2E1,3.03E2,1E0,1E0,1E0,5.8E1,1E0,2.2E1,3.9E1,4E0,1E0,2.29E2,3.48E2,6E0,3E1,3.1544158E-1,2.3516552E-1,2.2E1,2E1,1E0,2.38E2,7.2E1,1.57E2,7.4E1,3.5E1,2.4E1,7.4E1,-2.8223476E-1,1.8E1,2E0,3.57E2,1E0,5.7E1,-3.3146325E-1,5.7E1,4E0,4E0,-3.1016517E-1,7.9E1,3.37E2,6.2E1,1.22292005E-1,2.632294E-1,1.5501572E-1,4E1,7.3E1,-4.4146135E-2,4.6E1,-1.454468E-1,3.1E1,1.3082819E-1,-1.0318816E-2,-6.642758E-2,-7.0820907E-3,-2.5261864E-1,-2.805053E-2,-1.4038733E-1,-7.2574E-2,-1.5903164E-1,8.111563E-2,3.6842644E-2,4.8913147E-2,-1.1128845E-2,9.4251975E-2,8.233085E-3,-1.9270717E-1,-2.5175664E-1,-1.734203E-1,-4.649122E-2,-9.8712444E-2,-2.5966436E-1,-2.7957354E-2,6.806775E-2,-2.2515061E-1,-1.477999E-1,-2.6208451E-2,-1.9345953E-1,1.6115001E-1,7.302711E-2,-5.227958E-2,1.1073551E-1,8.913843E-2,3.806082E-2,3.6575064E-2,9.670835E-2,-1.1935339E-1,8.791312E-3,4.0634405E-2,1.071327E-2],"split_indices":[6,18,18,4,4,3,3,4,5,5,21,8,8,0,8,12,0,3,21,5,5,0,5,0,0,12,0,8,5,0,5,0,0,5,0,0,0,20,5,4,0,0,0,0,3,0,0,5,5,0,0,0,0,5,0,0,0,0,0,0,0,0,0,0,0,0,0,0,0,0,0,0,0,0,0,0,0,0,0,0,0,0,0,0,0,0,0,0,0,0,0,0,0,0,0,0,0],"split_type":[0,0,0,0,0,0,0,0,0,0,0,0,0,0,0,0,0,0,0,0,0,0,0,0,0,0,0,0,0,0,0,0,0,0,0,0,0,0,0,0,0,0,0,0,0,0,0,0,0,0,0,0,0,0,0,0,0,0,0,0,0,0,0,0,0,0,0,0,0,0,0,0,0,0,0,0,0,0,0,0,0,0,0,0,0,0,0,0,0,0,0,0,0,0,0,0,0],"sum_hessian":[2.788E3,2.476E3,3.12E2,1.992E3,4.84E2,2.57E2,5.5E1,5.71E2,1.421E3,1.33E2,3.51E2,1.07E2,1.5E2,3.1E1,2.4E1,2.12E2,3.59E2,7.03E2,7.18E2,1.12E2,2.1E1,2.79E2,7.2E1,5.9E1,4.8E1,9.5E1,5.5E1,2.1E1,1E1,1E1,1.4E1,2.04E2,8E0,1.46E2,2.13E2,4.6E1,6.57E2,4.07E2,3.11E2,8.2E1,3E1,1.2E1,9E0,7E0,2.72E2,6E0,6.6E1,8.4E1,1.1E1,3E0,5.2E1,8E0,1.3E1,6E0,4E0,7E0,3E0,9E0,5E0,1.66E2,3.8E1,3E0,5E0,9E0,1.37E2,1.96E2,1.7E1,1.52E2,5.05E2,3.78E2,2.9E1,2.98E2,1.3E1,3.1E1,5.1E1,1.6E1,1.4E1,4E0,5E0,4E0,3E0,1.9E1,2.53E2,5.8E1,8E0,7.8E1,6E0,3E0,8E0,7E0,6E0,3E0,3E0,3E0,4E0,3E0,6E0],"tree_param":{"num_deleted":"0","num_feature":"23","num_nodes":"97","size_leaf_vector":"1"}},{"base_weights":[-2.1003643E-2,2.676878E-1,-1.2593293E0,5.98854E-2,2.0303268E0,-1.465907E0,3.9195594E-1,-9.6854484E-1,3.2778326E-1,2.5607264E0,1.6482295E0,-2.014039E0,-1.3458537E0,7.778622E-1,-1.6545754E-2,-1.1530977E0,-4.320162E-1,5.595931E-2,4.5859262E-1,2.8914833E-1,2.0406165E0,1.3434476E0,2.2595427E0,-2.1100821E0,-8.373764E-1,-1.6585587E0,-1.2096817E0,2.273678E-1,1.0642657E0,-6.299711E-1,5.533246E-1,-1.1094432E0,-2.4981193E-1,-5.5586725E-2,-8.4888774E-1,2.0660444E-1,-2.211513E-1,4.096824E-1,2.1795467E-1,2.1185325E-1,1.0203332E-1,8.761999E-1,2.1942608E-1,2.3724215E-1,4.5620833E-2,-3.3622745E-2,-2.1770046E0,-2.7252315E-2,-1.10178374E-1,-1.5359212E0,-2.934814E-1,4.602031E-1,-1.2614262E0,9.125512E-2,-3.781276E-1,1.4312197E-1,6.248289E-1,-9.4211704E-1,4.3895945E-2,2.329714E-1,8.320564E-1,-1.0562607E-1,-2.219152E-1,-1.12519376E-1,3.323519E-2,-2.3156248E-1,-5.2730776E-2,-2.4603691E-3,1.2976383E-1,7.8467034E-2,2.57043E-2,-6.631316E-2,1.0171964E-1,-2.6256523E-1,-1.930026E-1,-1.3857804E-1,-2.613232E-1,7.254658E-2,-2.7741648E-3,-1.3951056E-1,-6.307211E-2,-1.3362461E-1,6.495229E-2,1.1336541E-1,2.798127E-2,-1.8984377E-1,-4.012948E-2,3.0724827E-2,3.8313249E-3,1.0126066E-1,3.733545E-2],"categories":[],"categories_nodes":[],"categories_segments":[],"categories_sizes":[],"default_left":[0,0,0,0,0,0,0,0,0,0,0,0,0,0,0,0,0,0,0,0,0,0,0,0,0,0,0,0,0,0,0,0,0,0,0,0,0,0,0,0,0,0,0,0,0,0,0,0,0,0,0,0,0,0,0,0,0,0,0,0,0,0,0,0,0,0,0,0,0,0,0,0,0,0,0,0,0,0,0,0,0,0,0,0,0,0,0,0,0,0,0],"id":3,"left_children":[1,3,5,7,9,11,13,15,17,19,21,23,25,27,29,31,33,35,37,-1,39,41,43,45,47,49,51,53,55,57,59,61,-1,63,65,67,-1,69,-1,-1,-1,71,-1,-1,-1,-1,73,-1,-1,75,-1,77,79,-1,81,-1,83,85,-1,87,89,-1,-1,-1,-1,-1,-1,-1,-1,-1,-1,-1,-1,-1,-1,-1,-1,-1,-1,-1,-1,-1,-1,-1,-1,-1,-1,-1,-1,-1,-1],"loss_changes":[1.0078544E3,8.3698676E2,1.8249811E2,5.6395557E2,4.42005E1,2.8144958E1,9.547604E0,4.1227936E1,5.766765E1,1.0637329E1,2.3247498E1,7.3181458E0,1.4398865E1,4.516428E0,1.08434305E1,1.5304626E1,1.712387E1,1.8095418E2,9.110097E1,0E0,8.633423E-1,3.6729294E1,7.99852E0,8.038727E0,7.571182E-1,1.3201233E1,2.459549E1,5.3770075E0,2.1251888E0,5.468801E0,1.128334E0,1.5387695E1,0E0,2.4934813E1,2.3021667E1,1.25530396E2,0E0,6.0767E1,0E0,0E0,0E0,1.4817562E1,0E0,0E0,0E0,0E0,2.5657043E0,0E0,0E0,1.344754E1,0E0,1.2547998E0,2.1597504E1,0E0,7.8288717E0,0E0,1.4725246E0,5.214587E0,0E0,8.379948E-2,1.4589214E-1,0E0,0E0,0E0,0E0,0E0,0E0,0E0,0E0,0E0,0E0,0E0,0E0,0E0,0E0,0E0,0E0,0E0,0E0,0E0,0E0,0E0,0E0,0E0,0E0,0E0,0E0,0E0,0E0,0E0,0E0],"parents":[2147483647,0,0,1,1,2,2,3,3,4,4,5,5,6,6,7,7,8,8,9,9,10,10,11,11,12,12,13,13,14,14,15,15,16,16,17,17,18,18,20,20,21,21,22,22,23,23,24,24,25,25,26,26,27,27,28,28,29,29,30,30,31,31,33,33,34,34,35,35,37,37,41,41,46,46,49,49,51,51,52,52,54,54,56,56,57,57,59,59,60,60],"right_children":[2,4,6,8,10,12,14,16,18,20,22,24,26,28,30,32,34,36,38,-1,40,42,44,46,48,50,52,54,56,58,60,62,-1,64,66,68,-1,70,-1,-1,-1,72,-1,-1,-1,-1,74,-1,-1,76,-1,78,80,-1,82,-1,84,86,-1,88,90,-1,-1,-1,-1,-1,-1,-1,-1,-1,-1,-1,-1,-1,-1,-1,-1,-1,-1,-1,-1,-1,-1,-1,-1,-1,-1,-1,-1,-1,-1],"split_conditions":[1E0,1E0,1E0,3E0,3E0,3E0,3E0,6.1E1,2E0,1E0,1E0,7.1E1,2E0,2E0,1E0,3.57E2,1.58E2,1E0,1E0,2.8914833E-1,3.18E2,1E0,2.2E1,2.2E1,1.43E2,1E0,8E0,2.51E2,1E0,2.97E2,1.52E2,1E0,-2.4981193E-1,3.8E1,2E2,1E0,-2.211513E-1,3E0,2.1795467E-1,2.1185325E-1,1.0203332E-1,5.5E1,2.1942608E-1,2.3724215E-1,4.5620833E-2,-3.3622745E-2,1.11E2,-2.7252315E-2,-1.10178374E-1,2.2E1,-2.934814E-1,6E0,1E0,9.125512E-2,2.77E2,1.4312197E-1,4E1,2E0,4.3895945E-2,7E1,2.06E2,-1.0562607E-1,-2.219152E-1,-1.12519376E-1,3.323519E-2,-2.3156248E-1,-5.2730776E-2,-2.4603691E-3,1.2976383E-1,7.8467034E-2,2.57043E-2,-6.631316E-2,1.0171964E-1,-2.6256523E-1,-1.930026E-1,-1.3857804E-1,-2.613232E-1,7.254658E-2,-2.7741648E-3,-1.3951056E-1,-6.307211E-2,-1.3362461E-1,6.495229E-2,1.1336541E-1,2.798127E-2,-1.8984377E-1,-4.012948E-2,3.0724827E-2,3.8313249E-3,1.0126066E-1,3.733545E-2],"split_indices":[18,6,6,3,3,3,3,0,2,8,7,0,2,2,8,5,5,10,10,0,5,8,12,5,5,10,0,5,8,5,5,11,0,5,5,9,0,2,0,0,0,5,0,0,0,0,5,0,0,12,0,0,21,0,5,0,0,2,0,0,5,0,0,0,0,0,0,0,0,0,0,0,0,0,0,0,0,0,0,0,0,0,0,0,0,0,0,0,0,0,0],"split_type":[0,0,0,0,0,0,0,0,0,0,0,0,0,0,0,0,0,0,0,0,0,0,0,0,0,0,0,0,0,0,0,0,0,0,0,0,0,0,0,0,0,0,0,0,0,0,0,0,0,0,0,0,0,0,0,0,0,0,0,0,0,0,0,0,0,0,0,0,0,0,0,0,0,0,0,0,0,0,0,0,0,0,0,0,0,0,0,0,0,0,0],"sum_hessian":[2.817E3,2.285E3,5.32E2,2.045E3,2.4E2,4.73E2,5.9E1,4.22E2,1.623E3,9.8E1,1.42E2,8.2E1,3.91E2,3E1,2.9E1,3.13E2,1.09E2,5.28E2,1.095E3,5.7E1,4.1E1,9.7E1,4.5E1,7.5E1,7E0,1.15E2,2.76E2,1.1E1,1.9E1,1.4E1,1.5E1,3.05E2,8E0,5.8E1,5.1E1,4.96E2,3.2E1,1.066E3,2.9E1,3.7E1,4E0,6.4E1,3.3E1,4.2E1,3E0,3E0,7.2E1,3E0,4E0,1.07E2,8E0,8E0,2.68E2,5E0,6E0,9E0,1E1,1.1E1,3E0,8E0,7E0,2.93E2,1.2E1,1.5E1,4.3E1,8E0,4.3E1,4.1E2,8.6E1,3.07E2,7.59E2,5E0,5.9E1,2.2E1,5E1,9.6E1,1.1E1,5E0,3E0,2.2E2,4.8E1,3E0,3E0,3E0,7E0,3E0,8E0,5E0,3E0,4E0,3E0],"tree_param":{"num_deleted":"0","num_feature":"23","num_nodes":"91","size_leaf_vector":"1"}},{"base_weights":[-1.3579091E-2,1.9480522E-1,-1.4954722E0,1.0887631E-1,1.9560231E0,-1.6174687E0,1.267807E-1,-4.317743E-1,3.442246E-1,2.0277114E0,-0E0,-1.8613914E0,-1.5109085E0,2.5447235E-1,-5.8221847E-2,-3.63752E-1,-1.2178961E0,2.0958837E-2,5.1039755E-1,2.0989011E-1,1.2630881E-1,-6.157736E-1,-1.9390689E0,-1.5595628E0,2.4063951E-1,4.3339223E-2,1.5404037E-1,-3.2942784E-1,-1.490107E0,-1.6517282E0,-3.4941182E-1,1.9065355E-1,-2.0017004E-1,9.441644E-1,3.3292282E-1,-4.5762993E-3,-1.00684084E-1,-2.0586143E0,-1.2736722E0,-2.2276022E0,-1.4634589E0,3.2665145E-2,6.94677E-3,1.9417447E-1,6.0414437E-2,-3.1087046E-2,-1.2617177E-1,-2.0667382E-1,5.178075E-2,3.4540825E-2,-1.8410464E-1,-1.0363283E-1,-4.468444E-3,2.8150205E-2,-2.6426715E-1,8.128848E-3,1.8629839E-1,2.5641877E-2,1.8306264E-1,-2.1268396E-1,-6.9902636E-2,-6.585863E-2,-1.5668653E-1,-7.767387E-2,-2.3787263E-1,-1.7439759E-1,-1.2222818E-1,8.92733E-3,3.042079E-2,8.687435E-3,-0E0],"categories":[],"categories_nodes":[],"categories_segments":[],"categories_sizes":[],"default_left":[0,0,0,0,0,0,0,0,0,0,0,0,0,0,0,0,0,0,0,0,0,0,0,0,0,0,0,0,0,0,0,0,0,0,0,0,0,0,0,0,0,0,0,0,0,0,0,0,0,0,0,0,0,0,0,0,0,0,0,0,0,0,0,0,0,0,0,0,0,0,0],"id":4,"left_children":[1,3,5,7,9,11,13,15,17,19,-1,21,23,25,-1,27,29,31,33,-1,-1,35,37,39,41,-1,43,45,47,49,51,53,-1,55,57,-1,-1,59,61,63,65,-1,-1,67,69,-1,-1,-1,-1,-1,-1,-1,-1,-1,-1,-1,-1,-1,-1,-1,-1,-1,-1,-1,-1,-1,-1,-1,-1,-1,-1],"loss_changes":[8.6414417E2,3.7081644E2,6.863281E1,2.9788428E2,1.6110504E1,5.1939087E0,2.3787153E0,3.7365204E1,8.755026E1,3.0003662E0,0E0,7.548828E0,2.0022644E1,2.6982093E-1,0E0,2.4650253E1,2.0322235E1,1.9069572E2,8.246826E1,0E0,0E0,1.4090507E0,3.96521E0,1.0687805E1,4.0756077E-2,0E0,2.2931635E-2,1.0471146E1,2.3223755E1,1.4774963E1,4.032036E0,1.3255568E2,0E0,2.470162E2,8.709047E1,0E0,0E0,4.9093018E0,1.6309624E0,3.5375671E0,1.0967285E1,0E0,0E0,4.892063E-2,4.6392772E-3,0E0,0E0,0E0,0E0,0E0,0E0,0E0,0E0,0E0,0E0,0E0,0E0,0E0,0E0,0E0,0E0,0E0,0E0,0E0,0E0,0E0,0E0,0E0,0E0,0E0,0E0],"parents":[2147483647,0,0,1,1,2,2,3,3,4,4,5,5,6,6,7,7,8,8,9,9,11,11,12,12,13,13,15,15,16,16,17,17,18,18,21,21,22,22,23,23,24,24,26,26,27,27,28,28,29,29,30,30,31,31,33,33,34,34,37,37,38,38,39,39,40,40,43,43,44,44],"right_children":[2,4,6,8,10,12,14,16,18,20,-1,22,24,26,-1,28,30,32,34,-1,-1,36,38,40,42,-1,44,46,48,50,52,54,-1,56,58,-1,-1,60,62,64,66,-1,-1,68,70,-1,-1,-1,-1,-1,-1,-1,-1,-1,-1,-1,-1,-1,-1,-1,-1,-1,-1,-1,-1,-1,-1,-1,-1,-1,-1],"split_conditions":[1E0,1E0,1E0,2E0,1E0,2E0,2.2E1,1E0,2E0,1E0,-0E0,1E0,1E0,2E0,-5.8221847E-2,1E0,2.27E2,1E0,3E0,2.0989011E-1,1.2630881E-1,9.6E1,9E0,1E0,1E0,4.3339223E-2,3E0,3.6E2,4E0,2.5E1,2E0,1E0,-2.0017004E-1,1E0,1E0,-4.5762993E-3,-1.00684084E-1,3.51E2,1.8E1,2.6E1,5.7E1,3.2665145E-2,6.94677E-3,3E0,1.05E2,-3.1087046E-2,-1.2617177E-1,-2.0667382E-1,5.178075E-2,3.4540825E-2,-1.8410464E-1,-1.0363283E-1,-4.468444E-3,2.8150205E-2,-2.6426715E-1,8.128848E-3,1.8629839E-1,2.5641877E-2,1.8306264E-1,-2.1268396E-1,-6.9902636E-2,-6.585863E-2,-1.5668653E-1,-7.767387E-2,-2.3787263E-1,-1.7439759E-1,-1.2222818E-1,8.92733E-3,3.042079E-2,8.687435E-3,-0E0],"split_indices":[17,8,8,4,11,2,12,18,2,18,0,4,10,2,0,11,5,10,2,0,0,5,4,4,9,0,2,5,3,5,2,11,0,21,10,0,0,5,5,5,5,0,0,3,5,0,0,0,0,0,0,0,0,0,0,0,0,0,0,0,0,0,0,0,0,0,0,0,0,0,0],"split_type":[0,0,0,0,0,0,0,0,0,0,0,0,0,0,0,0,0,0,0,0,0,0,0,0,0,0,0,0,0,0,0,0,0,0,0,0,0,0,0,0,0,0,0,0,0,0,0,0,0,0,0,0,0,0,0,0,0,0,0,0,0,0,0,0,0,0,0,0,0,0,0],"sum_hessian":[2.796E3,2.452E3,3.44E2,2.339E3,1.13E2,3.2E2,2.4E1,7.09E2,1.63E3,1.09E2,4E0,9.2E1,2.28E2,2.1E1,3E0,6.54E2,5.5E1,5.54E2,1.076E3,9.8E1,1.1E1,6E0,8.6E1,2.22E2,6E0,6E0,1.5E1,6.36E2,1.8E1,3.6E1,1.9E1,5.12E2,4.2E1,3.11E2,7.65E2,3E0,3E0,7.1E1,1.5E1,2.5E1,1.97E2,3E0,3E0,9E0,6E0,6.25E2,1.1E1,1.4E1,4E0,3E0,3.3E1,5E0,1.4E1,4.97E2,1.5E1,1.61E2,1.5E2,7.29E2,3.6E1,6.7E1,4E0,6E0,9E0,3E0,2.2E1,8.8E1,1.09E2,6E0,3E0,3E0,3E0],"tree_param":{"num_deleted":"0","num_feature":"23","num_nodes":"71","size_leaf_vector":"1"}},{"base_weights":[-3.362294E-3,1.8349011E-1,-1.3930519E0,1.627662E-2,1.655696E0,-1.5538222E0,-9.2982955E-2,-7.9949045E-1,2.3598924E-1,2.1274865E0,1.3082768E0,-1.6677924E0,-1.1715297E0,-2.567795E-1,5.4085147E-2,-7.573736E-1,-2.033917E0,-5.6289412E-2,3.781974E-1,2.5926068E-1,1.5730901E0,9.709766E-1,1.833902E-1,-1.8397032E0,-1.4419998E0,-1.3202742E0,1.709611E-2,-8.8137996E-1,-0E0,-8.174893E-1,-2.2187667E-2,-2.5227967E-1,-1.2782975E-1,9.081496E-2,-1.8909791E-1,3.318582E-1,1.6961776E-1,1.6250633E0,7.499239E-2,5.6709313E-1,1.8393023E-1,-2.1973495E-1,-1.6919394E0,-9.386531E-1,-1.7084419E0,-1.0050558E0,-1.4896593E0,-1.8309738E-1,-8.47541E-3,-6.0175467E-2,1.5689626E-1,-5.8063503E-2,-1.0089226E-1,-9.332737E-2,4.680751E-2,1.8385274E-2,-2.5912642E-1,6.382786E-2,2.0838972E-2,1.6659819E-1,7.436936E-2,7.4071586E-2,-1.7668342E-2,-1.5898533E-1,-2.5653726E-1,-1.07097544E-1,4.288306E-2,-1.9469349E-1,-1.2628011E-1,-1.1384783E-1,-1.969856E-2,-1.3549446E-1,-2.141674E-1,2.4695998E-2,-6.273514E-3],"categories":[],"categories_nodes":[],"categories_segments":[],"categories_sizes":[],"default_left":[0,0,0,0,0,0,0,0,0,0,0,0,0,0,0,0,0,0,0,0,0,0,0,0,0,0,0,0,0,0,0,0,0,0,0,0,0,0,0,0,0,0,0,0,0,0,0,0,0,0,0,0,0,0,0,0,0,0,0,0,0,0,0,0,0,0,0,0,0,0,0,0,0,0,0],"id":5,"left_children":[1,3,5,7,9,11,13,15,17,19,21,23,25,27,-1,29,31,33,35,-1,37,39,-1,41,43,45,-1,47,49,51,53,-1,-1,55,-1,57,-1,59,-1,61,-1,-1,63,65,67,69,71,-1,-1,-1,73,-1,-1,-1,-1,-1,-1,-1,-1,-1,-1,-1,-1,-1,-1,-1,-1,-1,-1,-1,-1,-1,-1,-1,-1],"loss_changes":[7.339354E2,6.1302203E2,6.971002E1,4.0125876E2,3.8506042E1,1.0746033E1,4.055628E0,2.2875793E1,7.33731E1,2.2838257E1,2.435556E1,5.830261E0,1.4718185E1,4.9474688E0,0E0,2.027237E1,1.9361115E0,1.5634866E2,7.1729324E1,0E0,7.2574615E-1,3.1331627E1,0E0,2.4991455E0,1.1945251E1,1.7239075E0,0E0,6.4614825E0,2.278256E0,1.8570862E1,1.6563538E1,0E0,0E0,1.3398628E2,0E0,4.321489E1,0E0,2.1507263E-1,0E0,8.581146E0,0E0,0E0,3.7983093E0,7.3995285E0,4.235077E0,2.4453735E0,2.6193237E-1,0E0,0E0,0E0,4.0975115E-1,0E0,0E0,0E0,0E0,0E0,0E0,0E0,0E0,0E0,0E0,0E0,0E0,0E0,0E0,0E0,0E0,0E0,0E0,0E0,0E0,0E0,0E0,0E0,0E0],"parents":[2147483647,0,0,1,1,2,2,3,3,4,4,5,5,6,6,7,7,8,8,9,9,10,10,11,11,12,12,13,13,15,15,16,16,17,17,18,18,20,20,21,21,23,23,24,24,25,25,27,27,28,28,29,29,30,30,33,33,35,35,37,37,39,39,42,42,43,43,44,44,45,45,46,46,50,50],"right_children":[2,4,6,8,10,12,14,16,18,20,22,24,26,28,-1,30,32,34,36,-1,38,40,-1,42,44,46,-1,48,50,52,54,-1,-1,56,-1,58,-1,60,-1,62,-1,-1,64,66,68,70,72,-1,-1,-1,74,-1,-1,-1,-1,-1,-1,-1,-1,-1,-1,-1,-1,-1,-1,-1,-1,-1,-1,-1,-1,-1,-1,-1,-1],"split_conditions":[1E0,1E0,1E0,3E0,3E0,4E0,2.77E2,1E0,2E0,1E0,1E0,9.2E1,1E0,2E0,5.4085147E-2,3E0,2E0,1E0,1E0,2.5926068E-1,2.2E1,1E0,1.833902E-1,4E0,1.6E2,5E0,1.709611E-2,1E0,7.1E1,1.47E2,9.6E1,-2.5227967E-1,-1.2782975E-1,1E0,-1.8909791E-1,3E0,1.6961776E-1,3.4E2,7.499239E-2,3E0,1.8393023E-1,-2.1973495E-1,1E0,1E0,1E0,7.5E1,3.7E1,-1.8309738E-1,-8.47541E-3,-6.0175467E-2,3E0,-5.8063503E-2,-1.0089226E-1,-9.332737E-2,4.680751E-2,1.8385274E-2,-2.5912642E-1,6.382786E-2,2.0838972E-2,1.6659819E-1,7.436936E-2,7.4071586E-2,-1.7668342E-2,-1.5898533E-1,-2.5653726E-1,-1.07097544E-1,4.288306E-2,-1.9469349E-1,-1.2628011E-1,-1.1384783E-1,-1.969856E-2,-1.3549446E-1,-2.141674E-1,2.4695998E-2,-6.273514E-3],"split_indices":[17,6,6,3,3,2,5,11,2,8,8,5,10,2,0,2,2,10,10,0,12,7,0,3,5,3,0,8,5,5,5,0,0,11,0,2,0,5,0,2,0,0,10,20,21,5,5,0,0,0,2,0,0,0,0,0,0,0,0,0,0,0,0,0,0,0,0,0,0,0,0,0,0,0,0],"split_type":[0,0,0,0,0,0,0,0,0,0,0,0,0,0,0,0,0,0,0,0,0,0,0,0,0,0,0,0,0,0,0,0,0,0,0,0,0,0,0,0,0,0,0,0,0,0,0,0,0,0,0,0,0,0,0,0,0,0,0,0,0,0,0,0,0,0,0,0,0,0,0,0,0,0,0],"sum_hessian":[2.824E3,2.49E3,3.34E2,2.237E3,2.53E2,2.97E2,3.7E1,4.74E2,1.763E3,1.05E2,1.48E2,2.26E2,7.1E1,3E1,7E0,4.6E2,1.4E1,5.77E2,1.186E3,5.5E1,5E1,9.2E1,5.6E1,1.24E2,1.02E2,6.4E1,7E0,8E0,2.2E1,4.25E2,3.5E1,7E0,7E0,5.35E2,4.2E1,1.147E3,3.9E1,4.6E1,4E0,6.4E1,2.8E1,3.2E1,9.2E1,3.7E1,6.5E1,2.5E1,3.9E1,3E0,5E0,4E0,1.8E1,1.92E2,2.33E2,1.2E1,2.3E1,5.18E2,1.7E1,3.28E2,8.19E2,4.3E1,3E0,5.2E1,1.2E1,8.5E1,7E0,3.4E1,3E0,4E1,2.5E1,2.1E1,4E0,3.5E1,4E0,1.3E1,5E0],"tree_param":{"num_deleted":"0","num_feature":"23","num_nodes":"75","size_leaf_vector":"1"}},{"base_weights":[5.3488496E-3,-1.5588716E-1,1.3492978E0,6.609707E-2,-1.0928313E0,1.5925469E0,3.0517957E-1,-5.7233965E-1,3.021298E-1,-1.4055192E0,-9.757378E-1,1.9959663E0,1.3239739E0,6.1751336E-1,-4.7946442E-2,-2.1328756E-1,-7.8559506E-1,7.1788454E-1,2.4778697E-1,-1.243499E0,-2.0867637E-1,-1.2871802E0,-8.246181E-1,2.299534E-1,1.6487329E-1,1.0765992E0,1.8522997E-1,1.1407163E0,3.470796E-1,-8.8387795E-2,2.1566568E-1,-3.6397424E-1,2.546007E-2,-6.190041E-1,-1.1651701E0,3.5999626E-1,1.062101E0,2.094646E-2,4.1692302E-1,-1.4890436E0,-5.684848E-1,-1.4122565E0,-1.0843338E-1,-7.1307284E-1,-1.7114493E0,6.7078215E-1,1.6813724E0,1.3771328E-1,6.0887337E-2,-0E0,4.2477208E-1,-3.206708E-2,3.5822216E-1,-1.9740738E-2,-9.931773E-2,7.911619E-2,-2.7689511E-2,-6.67272E-2,1.3579878E-1,-1.4673221E-1,-4.4579156E-2,4.803074E-2,-2.171381E-1,1.1287387E-1,8.387565E-2,-2.644252E-1,2.4792476E-2,6.3695334E-2,1.7839478E-2,2.1400366E-2,-1.5623294E-1,-3.9049327E-2,-1.6028063E-1,-1.3416134E-1,-2.494411E-1,1.17068134E-1,-9.068259E-2,-8.5467204E-2,-4.958226E-3,-1.990817E-1,-8.215194E-2,-2.9925793E-2,7.780149E-2,1.7667744E-1,8.720653E-2,1.2234638E-2,5.574561E-2,2.2562772E-2,6.378422E-2],"categories":[],"categories_nodes":[],"categories_segments":[],"categories_sizes":[],"default_left":[0,0,0,0,0,0,0,0,0,0,0,0,0,0,0,0,0,0,0,0,0,0,0,0,0,0,0,0,0,0,0,0,0,0,0,0,0,0,0,0,0,0,0,0,0,0,0,0,0,0,0,0,0,0,0,0,0,0,0,0,0,0,0,0,0,0,0,0,0,0,0,0,0,0,0,0,0,0,0,0,0,0,0,0,0,0,0,0,0],"id":6,"left_children":[1,3,5,7,9,11,13,15,17,19,21,23,25,27,29,31,33,35,37,39,-1,41,43,-1,-1,45,-1,47,49,-1,51,53,55,57,59,61,63,65,67,69,71,73,75,77,79,81,83,-1,-1,-1,85,-1,87,-1,-1,-1,-1,-1,-1,-1,-1,-1,-1,-1,-1,-1,-1,-1,-1,-1,-1,-1,-1,-1,-1,-1,-1,-1,-1,-1,-1,-1,-1,-1,-1,-1,-1,-1,-1],"loss_changes":[6.068532E2,5.2014197E2,7.5518555E1,3.0484506E2,1.5928406E1,2.335382E1,6.48357E0,4.1539673E1,3.309584E1,1.1200134E1,1.5294281E1,5.8276978E0,1.718637E1,3.841545E0,6.4275703E0,7.4182167E0,2.0726273E1,2.0417915E1,5.0131393E1,1.651683E1,0E0,1.6354752E1,2.2278381E1,0E0,0E0,2.4161392E1,0E0,2.2026348E-1,5.9755015E-1,0E0,1.8007077E0,1.289023E1,1.8791607E1,2.373912E1,2.1542831E1,2.6760817E1,1.3645935E-1,3.391836E2,3.911493E1,1.0079483E1,4.6977997E0,4.067444E0,1.3290047E1,2.0066383E1,4.547333E0,6.9379864E0,1.0291367E0,0E0,0E0,0E0,5.861037E-1,0E0,4.371071E-1,0E0,0E0,0E0,0E0,0E0,0E0,0E0,0E0,0E0,0E0,0E0,0E0,0E0,0E0,0E0,0E0,0E0,0E0,0E0,0E0,0E0,0E0,0E0,0E0,0E0,0E0,0E0,0E0,0E0,0E0,0E0,0E0,0E0,0E0,0E0,0E0],"parents":[2147483647,0,0,1,1,2,2,3,3,4,4,5,5,6,6,7,7,8,8,9,9,10,10,11,11,12,12,13,13,14,14,15,15,16,16,17,17,18,18,19,19,21,21,22,22,25,25,27,27,28,28,30,30,31,31,32,32,33,33,34,34,35,35,36,36,37,37,38,38,39,39,40,40,41,41,42,42,43,43,44,44,45,45,46,46,50,50,52,52],"right_children":[2,4,6,8,10,12,14,16,18,20,22,24,26,28,30,32,34,36,38,40,-1,42,44,-1,-1,46,-1,48,50,-1,52,54,56,58,60,62,64,66,68,70,72,74,76,78,80,82,84,-1,-1,-1,86,-1,88,-1,-1,-1,-1,-1,-1,-1,-1,-1,-1,-1,-1,-1,-1,-1,-1,-1,-1,-1,-1,-1,-1,-1,-1,-1,-1,-1,-1,-1,-1,-1,-1,-1,-1,-1,-1],"split_conditions":[1E0,1E0,1E0,2E0,2E0,2E0,2E0,1E0,1.8E1,3E2,2E0,1E0,1E0,1E0,2E0,5.9E1,2.53E2,2E0,4.1E1,2.31E2,-2.0867637E-1,7.7E1,7.7E1,2.299534E-1,1.6487329E-1,1E0,1.8522997E-1,5.4E1,3.1E1,-8.8387795E-2,7.3E1,2.82E2,6.6E1,2.51E2,5.4E1,1E0,1.4E1,8E0,3E0,3E0,7.7E1,1E0,2.3E1,1E0,4E0,5.5E1,3.22E2,1.3771328E-1,6.0887337E-2,-0E0,1.63E2,-3.206708E-2,7.7E1,-1.9740738E-2,-9.931773E-2,7.911619E-2,-2.7689511E-2,-6.67272E-2,1.3579878E-1,-1.4673221E-1,-4.4579156E-2,4.803074E-2,-2.171381E-1,1.1287387E-1,8.387565E-2,-2.644252E-1,2.4792476E-2,6.3695334E-2,1.7839478E-2,2.1400366E-2,-1.5623294E-1,-3.9049327E-2,-1.6028063E-1,-1.3416134E-1,-2.494411E-1,1.17068134E-1,-9.068259E-2,-8.5467204E-2,-4.958226E-3,-1.990817E-1,-8.215194E-2,-2.9925793E-2,7.780149E-2,1.7667744E-1,8.720653E-2,1.2234638E-2,5.574561E-2,2.2562772E-2,6.378422E-2],"split_indices":[6,18,18,4,4,4,4,4,0,5,2,8,7,8,2,0,5,2,5,5,0,0,0,0,0,8,0,0,0,0,5,5,0,5,0,11,0,4,2,5,0,11,5,20,2,5,5,0,0,0,5,0,0,0,0,0,0,0,0,0,0,0,0,0,0,0,0,0,0,0,0,0,0,0,0,0,0,0,0,0,0,0,0,0,0,0,0,0,0],"split_type":[0,0,0,0,0,0,0,0,0,0,0,0,0,0,0,0,0,0,0,0,0,0,0,0,0,0,0,0,0,0,0,0,0,0,0,0,0,0,0,0,0,0,0,0,0,0,0,0,0,0,0,0,0,0,0,0,0,0,0,0,0,0,0,0,0,0,0,0,0,0,0,0,0,0,0,0,0,0,0,0,0,0,0,0,0,0,0,0,0],"sum_hessian":[2.798E3,2.499E3,2.99E2,2.021E3,4.78E2,2.42E2,5.7E1,5.45E2,1.476E3,1.27E2,3.51E2,9.4E1,1.48E2,3E1,2.7E1,2.04E2,3.41E2,1.69E2,1.307E3,1.05E2,2.2E1,1.12E2,2.39E2,4.7E1,4.7E1,1.03E2,4.5E1,9E0,2.1E1,6E0,2.1E1,1.25E2,7.9E1,2.39E2,1.02E2,8.4E1,8.5E1,5.59E2,7.48E2,7.6E1,2.9E1,1.01E2,1.1E1,2.14E2,2.5E1,6.3E1,4E1,5E0,4E0,4E0,1.7E1,4E0,1.7E1,1E2,2.5E1,2.2E1,5.7E1,2.34E2,5E0,7.1E1,3.1E1,8.1E1,3E0,6.2E1,2.3E1,4.3E1,5.16E2,3.88E2,3.6E2,3E0,7.3E1,2.6E1,3E0,9.7E1,4E0,4E0,7E0,1.76E2,3.8E1,1.8E1,7E0,6E0,5.7E1,3.5E1,5E0,6E0,1.1E1,1.3E1,4E0],"tree_param":{"num_deleted":"0","num_feature":"23","num_nodes":"89","size_leaf_vector":"1"}},{"base_weights":[-1.5762735E-2,-1.654312E-1,1.2184823E0,3.5585597E-2,-1.0419133E0,1.4350262E0,3.0506852E-1,-4.843077E-1,2.445089E-1,-1.4623548E0,-8.8881946E-1,1.8329496E0,1.1417769E0,5.961688E-1,-4.533787E-2,-9.111205E-2,-7.114904E-1,7.455177E-1,1.794481E-1,-1.8014469E0,-1.114746E0,-1.0740099E0,-6.586917E-1,2.1616073E-1,1.3932383E-1,9.208796E-1,1.6099735E0,8.9445287E-1,2.1708871E-1,-1.1383066E-1,1.8008637E-1,-4.6532594E-2,-1.1051114E0,-4.622375E-1,-9.022808E-1,3.7595108E-1,1.3539072E0,-8.818701E-2,3.8378882E-1,-1.4520496E0,-2.0332609E-1,4.7915015E-2,-1.2026285E0,-2.6364403E0,-9.155223E-1,-5.544825E-1,-1.3866174E0,5.819227E-1,1.4648892E-1,1.6498885E-1,7.633745E-2,1.104097E-1,6.0632783E-1,-5.0218374E-1,7.0887053E-1,4.4484192E-1,6.1565526E-2,1.5364167E-3,-4.507711E-2,3.701351E-3,-1.6990094E-1,-8.133171E-2,4.0106554E-2,-9.431776E-2,6.2874064E-2,-4.2861734E-2,6.308008E-2,1.4599846E-1,7.7307954E-2,-2.4370651E-1,1.5541129E-2,4.1561153E-2,-3.511283E-2,-1.6114755E-1,-3.7639566E-2,-9.8792806E-2,-1.9116819E-1,-2.8764912E-1,-1.1121513E-1,-9.5757656E-2,-1.1586945E-2,8.780809E-3,-6.3887335E-2,-1.7323717E-1,-5.2031022E-3,2.837113E-2,1.1337941E-1,7.819617E-2,3.4224503E-2,3.3677194E-2,-1.2405934E-1,3.083615E-2,9.078163E-2,1.9944284E-2,5.5403054E-2,-2.5796032E-2,4.2086475E-2],"categories":[],"categories_nodes":[],"categories_segments":[],"categories_sizes":[],"default_left":[0,0,0,0,0,0,0,0,0,0,0,0,0,0,0,0,0,0,0,0,0,0,0,0,0,0,0,0,0,0,0,0,0,0,0,0,0,0,0,0,0,0,0,0,0,0,0,0,0,0,0,0,0,0,0,0,0,0,0,0,0,0,0,0,0,0,0,0,0,0,0,0,0,0,0,0,0,0,0,0,0,0,0,0,0,0,0,0,0,0,0,0,0,0,0,0,0],"id":7,"left_children":[1,3,5,7,9,11,13,15,17,19,21,23,25,27,29,31,33,35,37,39,41,43,45,-1,-1,47,49,51,53,-1,55,57,59,61,63,65,67,69,71,73,-1,-1,75,77,79,81,83,85,-1,-1,-1,-1,87,89,91,93,95,-1,-1,-1,-1,-1,-1,-1,-1,-1,-1,-1,-1,-1,-1,-1,-1,-1,-1,-1,-1,-1,-1,-1,-1,-1,-1,-1,-1,-1,-1,-1,-1,-1,-1,-1,-1,-1,-1,-1,-1],"loss_changes":[5.2269055E2,4.448353E2,5.9913177E1,2.2319543E2,2.8781982E1,2.6432373E1,6.2023168E0,5.2468674E1,4.755951E1,1.2316284E1,1.3950165E1,1.1517853E1,1.3260712E1,3.4260979E0,7.199502E0,9.642579E0,1.718451E1,3.70912E1,7.1104095E1,1.6397705E0,9.613434E0,4.452762E1,1.1022362E1,0E0,0E0,1.7566849E1,1.9821167E-2,2.4677944E-1,6.0362535E0,0E0,6.750695E-1,5.2798667E0,6.3338375E0,5.007386E1,1.3773392E1,2.202526E1,2.5296097E0,3.2274576E2,1.7388626E1,3.9962997E0,0E0,0E0,7.107712E0,2.622467E0,5.666748E0,7.6996803E0,8.498764E0,1.006934E1,0E0,0E0,0E0,0E0,8.377552E-2,4.8446302E0,3.952427E-1,1.7188787E-3,2.1913536E0,0E0,0E0,0E0,0E0,0E0,0E0,0E0,0E0,0E0,0E0,0E0,0E0,0E0,0E0,0E0,0E0,0E0,0E0,0E0,0E0,0E0,0E0,0E0,0E0,0E0,0E0,0E0,0E0,0E0,0E0,0E0,0E0,0E0,0E0,0E0,0E0,0E0,0E0,0E0,0E0],"parents":[2147483647,0,0,1,1,2,2,3,3,4,4,5,5,6,6,7,7,8,8,9,9,10,10,11,11,12,12,13,13,14,14,15,15,16,16,17,17,18,18,19,19,20,20,21,21,22,22,25,25,26,26,27,27,28,28,30,30,31,31,32,32,33,33,34,34,35,35,36,36,37,37,38,38,39,39,42,42,43,43,44,44,45,45,46,46,47,47,52,52,53,53,54,54,55,55,56,56],"right_children":[2,4,6,8,10,12,14,16,18,20,22,24,26,28,30,32,34,36,38,40,42,44,46,-1,-1,48,50,52,54,-1,56,58,60,62,64,66,68,70,72,74,-1,-1,76,78,80,82,84,86,-1,-1,-1,-1,88,90,92,94,96,-1,-1,-1,-1,-1,-1,-1,-1,-1,-1,-1,-1,-1,-1,-1,-1,-1,-1,-1,-1,-1,-1,-1,-1,-1,-1,-1,-1,-1,-1,-1,-1,-1,-1,-1,-1,-1,-1,-1,-1],"split_conditions":[1E0,1E0,1E0,2E0,2E0,2E0,2E0,1E0,1.8E1,4.8E1,5.8E1,1E0,1E0,2.38E2,7.1E1,2.2E1,1.47E2,1E0,4.2E1,1.41E2,3E0,8E0,7.7E1,2.1616073E-1,1.3932383E-1,1E0,8.2E1,1E0,2.77E2,-1.1383066E-1,1E0,7.8E1,2.9E1,1.02E2,9E1,7E0,1.6E1,8E0,1E0,1.05E2,-2.0332609E-1,4.7915015E-2,2.97E2,3.8E1,8.1E1,7.2E1,3E0,3E0,1.4648892E-1,1.6498885E-1,7.633745E-2,1.104097E-1,5.2E1,2.51E2,3.13E2,1.6E2,1E0,1.5364167E-3,-4.507711E-2,3.701351E-3,-1.6990094E-1,-8.133171E-2,4.0106554E-2,-9.431776E-2,6.2874064E-2,-4.2861734E-2,6.308008E-2,1.4599846E-1,7.7307954E-2,-2.4370651E-1,1.5541129E-2,4.1561153E-2,-3.511283E-2,-1.6114755E-1,-3.7639566E-2,-9.8792806E-2,-1.9116819E-1,-2.8764912E-1,-1.1121513E-1,-9.5757656E-2,-1.1586945E-2,8.780809E-3,-6.3887335E-2,-1.7323717E-1,-5.2031022E-3,2.837113E-2,1.1337941E-1,7.819617E-2,3.4224503E-2,3.3677194E-2,-1.2405934E-1,3.083615E-2,9.078163E-2,1.9944284E-2,5.5403054E-2,-2.5796032E-2,4.2086475E-2],"split_indices":[6,18,18,4,4,4,4,4,0,0,5,8,7,5,5,12,5,9,5,5,5,4,0,0,0,8,0,8,5,0,20,0,0,5,12,0,0,4,11,5,0,0,5,5,0,5,20,20,0,0,0,0,0,5,5,5,7,0,0,0,0,0,0,0,0,0,0,0,0,0,0,0,0,0,0,0,0,0,0,0,0,0,0,0,0,0,0,0,0,0,0,0,0,0,0,0,0],"split_type":[0,0,0,0,0,0,0,0,0,0,0,0,0,0,0,0,0,0,0,0,0,0,0,0,0,0,0,0,0,0,0,0,0,0,0,0,0,0,0,0,0,0,0,0,0,0,0,0,0,0,0,0,0,0,0,0,0,0,0,0,0,0,0,0,0,0,0,0,0,0,0,0,0,0,0,0,0,0,0,0,0,0,0,0,0,0,0,0,0,0,0,0,0,0,0,0,0],"sum_hessian":[2.828E3,2.523E3,3.05E2,2.053E3,4.7E2,2.46E2,5.9E1,5.88E2,1.465E3,1.23E2,3.47E2,1.02E2,1.44E2,3.2E1,2.7E1,2.16E2,3.72E2,1.67E2,1.298E3,6E1,6.3E1,1.9E2,1.57E2,5.6E1,4.6E1,1E2,4.4E1,1.7E1,1.5E1,4E0,2.3E1,2.08E2,8E0,1.63E2,2.09E2,1.05E2,6.2E1,5.62E2,7.36E2,2.7E1,3.3E1,3E0,6E1,1.6E1,1.74E2,1.39E2,1.8E1,6.3E1,3.7E1,4.1E1,3E0,8E0,9E0,6E0,9E0,6E0,1.7E1,1.81E2,2.7E1,3E0,5E0,1.16E2,4.7E1,2.04E2,5E0,2.5E1,8E1,5.1E1,1.1E1,5.2E1,5.1E2,7.06E2,3E1,2.3E1,4E0,4.8E1,1.2E1,1.3E1,3E0,1.65E2,9E0,1.6E1,1.23E2,1.4E1,4E0,4.2E1,2.1E1,4E0,5E0,3E0,3E0,4E0,5E0,3E0,3E0,9E0,8E0],"tree_param":{"num_deleted":"0","num_feature":"23","num_nodes":"97","size_leaf_vector":"1"}},{"base_weights":[-2.5989635E-2,1.14325054E-1,-1.0986533E0,-1.6812066E-2,1.2610759E0,-1.2313474E0,-0E0,-5.796404E-1,2.046112E-1,1.5968338E0,9.9047875E-1,-1.0836464E0,-1.5413347E0,4.360345E-1,-2.0815943E-1,-3.317577E-1,-7.2903913E-1,-4.1450746E-2,3.2893142E-1,1.6672096E0,-6.951145E-2,7.9356474E-1,1.4801162E-1,-1.1978371E0,-6.492923E-1,-1.9639548E0,-1.3680373E0,6.004606E-2,2.185215E-1,1.4535941E-1,-4.2234874E-1,2.875482E-2,-4.0486953E-1,-8.842356E-1,-4.5191923E-1,1.07084446E-1,-1.7561485E-1,6.795566E-1,1.9717628E-1,1.8872581E-1,1.3572063E-1,5.310004E-1,1.2399018E-1,-1.3403808E0,-8.4413624E-1,-8.1011623E-1,-1.1479416E-2,-2.2986214E-1,-1.13966346E-1,-9.243646E-1,-1.7120777E-1,4.8898254E-2,-8.156989E-3,-4.2479658E-3,3.6169443E-2,-7.940881E-1,3.6151636E-2,3.2812726E-2,-1.349245E-2,-6.6156164E-2,-1.9025901E-2,3.723415E-3,-9.436368E-2,-3.93876E-2,-1.694927E-1,1.8176964E-2,-2.1385817E-1,-1.5565776E-3,1.524137E-1,-4.440908E-2,3.72865E-2,6.319478E-2,-4.246768E-2,-1.4118062E-1,-5.6011654E-2,-5.0724E-2,-1.0630893E-1,-5.164897E-2,-1.2596004E-1,-1.0663714E-2,8.500574E-3,-1.05803244E-1,-4.5409907E-2,-4.2042434E-2,-9.889343E-2,1.5283965E-2,-9.374629E-3],"categories":[],"categories_nodes":[],"categories_segments":[],"categories_sizes":[],"default_left":[0,0,0,0,0,0,0,0,0,0,0,0,0,0,0,0,0,0,0,0,0,0,0,0,0,0,0,0,0,0,0,0,0,0,0,0,0,0,0,0,0,0,0,0,0,0,0,0,0,0,0,0,0,0,0,0,0,0,0,0,0,0,0,0,0,0,0,0,0,0,0,0,0,0,0,0,0,0,0,0,0,0,0,0,0,0,0],"id":8,"left_children":[1,3,5,7,9,11,13,15,17,19,21,23,25,27,29,31,33,35,37,39,-1,41,-1,43,45,47,49,-1,51,53,55,57,59,61,63,65,-1,67,69,-1,-1,71,-1,73,75,77,79,-1,-1,81,-1,-1,-1,-1,-1,83,85,-1,-1,-1,-1,-1,-1,-1,-1,-1,-1,-1,-1,-1,-1,-1,-1,-1,-1,-1,-1,-1,-1,-1,-1,-1,-1,-1,-1,-1,-1],"loss_changes":[4.2285742E2,3.736935E2,4.74151E1,2.78066E2,2.1327667E1,1.1345001E1,3.3647718E0,2.2983093E1,4.901773E1,1.9321472E1,1.2482056E1,8.957397E0,3.6447601E0,2.1606588E-1,1.9820904E0,6.348755E0,1.6325928E1,1.3737776E2,4.8931587E1,4.549652E0,0E0,1.1469704E1,0E0,6.565674E0,4.4218636E0,3.6572342E0,8.533379E0,0E0,6.4876866E-1,4.536478E-1,2.8315835E0,2.0726368E0,1.0751621E1,1.38098755E1,9.4407215E0,8.338117E1,0E0,1.7042972E2,8.747258E1,0E0,0E0,6.8492737E0,0E0,5.142395E0,2.8444176E0,3.7911377E0,1.0304099E-1,0E0,0E0,1.3798351E0,0E0,0E0,0E0,0E0,0E0,9.855461E-2,1.4149773E-1,0E0,0E0,0E0,0E0,0E0,0E0,0E0,0E0,0E0,0E0,0E0,0E0,0E0,0E0,0E0,0E0,0E0,0E0,0E0,0E0,0E0,0E0,0E0,0E0,0E0,0E0,0E0,0E0,0E0,0E0],"parents":[2147483647,0,0,1,1,2,2,3,3,4,4,5,5,6,6,7,7,8,8,9,9,10,10,11,11,12,12,13,13,14,14,15,15,16,16,17,17,18,18,19,19,21,21,23,23,24,24,25,25,26,26,28,28,29,29,30,30,31,31,32,32,33,33,34,34,35,35,37,37,38,38,41,41,43,43,44,44,45,45,46,46,49,49,55,55,56,56],"right_children":[2,4,6,8,10,12,14,16,18,20,22,24,26,28,30,32,34,36,38,40,-1,42,-1,44,46,48,50,-1,52,54,56,58,60,62,64,66,-1,68,70,-1,-1,72,-1,74,76,78,80,-1,-1,82,-1,-1,-1,-1,-1,84,86,-1,-1,-1,-1,-1,-1,-1,-1,-1,-1,-1,-1,-1,-1,-1,-1,-1,-1,-1,-1,-1,-1,-1,-1,-1,-1,-1,-1,-1,-1],"split_conditions":[1E0,1E0,1E0,2E0,3E0,6E1,3.6E1,1E0,2E0,1E0,1E0,5.2E1,6.5E1,3E1,3E0,2.9E1,5.3E1,1E0,3E0,1E0,-6.951145E-2,1E0,1.4801162E-1,9E0,1E0,5E0,7.4E1,6.004606E-2,3E0,6.2E1,1E0,4E0,5.7E1,2E1,1E0,1E0,-1.7561485E-1,1E0,4E0,1.8872581E-1,1.3572063E-1,7.9E1,1.2399018E-1,4.8E1,3.6E1,5.7E1,5.7E1,-2.2986214E-1,-1.13966346E-1,7.2E1,-1.7120777E-1,4.8898254E-2,-8.156989E-3,-4.2479658E-3,3.6169443E-2,5.7E1,7.5E1,3.2812726E-2,-1.349245E-2,-6.6156164E-2,-1.9025901E-2,3.723415E-3,-9.436368E-2,-3.93876E-2,-1.694927E-1,1.8176964E-2,-2.1385817E-1,-1.5565776E-3,1.524137E-1,-4.440908E-2,3.72865E-2,6.319478E-2,-4.246768E-2,-1.4118062E-1,-5.6011654E-2,-5.0724E-2,-1.0630893E-1,-5.164897E-2,-1.2596004E-1,-1.0663714E-2,8.500574E-3,-1.05803244E-1,-4.5409907E-2,-4.2042434E-2,-9.889343E-2,1.5283965E-2,-9.374629E-3],"split_indices":[17,6,6,4,3,0,0,4,2,11,7,0,0,0,3,0,0,10,2,8,0,8,0,4,21,3,0,0,3,0,8,3,0,0,11,11,0,21,3,0,0,0,0,0,0,0,0,0,0,0,0,0,0,0,0,0,0,0,0,0,0,0,0,0,0,0,0,0,0,0,0,0,0,0,0,0,0,0,0,0,0,0,0,0,0,0,0],"split_type":[0,0,0,0,0,0,0,0,0,0,0,0,0,0,0,0,0,0,0,0,0,0,0,0,0,0,0,0,0,0,0,0,0,0,0,0,0,0,0,0,0,0,0,0,0,0,0,0,0,0,0,0,0,0,0,0,0,0,0,0,0,0,0,0,0,0,0,0,0,0,0,0,0,0,0,0,0,0,0,0,0,0,0,0,0,0,0],"sum_hessian":[2.807E3,2.483E3,3.24E2,2.229E3,2.54E2,2.89E2,3.5E1,6.29E2,1.6E3,1.11E2,1.43E2,1.99E2,9E1,1.1E1,2.4E1,2.38E2,3.91E2,5.37E2,1.063E3,1.08E2,3E0,1.04E2,3.9E1,1.56E2,4.3E1,2.3E1,6.7E1,5E0,6E0,9E0,1.5E1,4E1,1.98E2,2.49E2,1.42E2,4.95E2,4.2E1,2.89E2,7.74E2,6E1,4.8E1,6.7E1,3.7E1,1.09E2,4.7E1,3.4E1,9E0,1.5E1,8E0,3.1E1,3.6E1,3E0,3E0,5E0,4E0,8E0,7E0,1.4E1,2.6E1,8.9E1,1.09E2,1.5E1,2.34E2,1.37E2,5E0,4.8E2,1.5E1,1.59E2,1.3E2,1.66E2,6.08E2,6.1E1,6E0,9.9E1,1E1,2E1,2.7E1,2.2E1,1.2E1,5E0,4E0,2.3E1,8E0,4E0,4E0,4E0,3E0],"tree_param":{"num_deleted":"0","num_feature":"23","num_nodes":"87","size_leaf_vector":"1"}},{"base_weights":[8.106994E-3,1.4927202E-1,-1.0136058E0,2.8381808E-2,1.144193E0,-1.1478486E0,-1.0728711E-2,-4.6550384E-1,2.3587319E-1,1.4483728E0,9.1833395E-1,-5.9388995E-1,-1.2027262E0,-1.1905675E-1,4.3850654E-1,-2.4677274E-1,-5.974034E-1,1.0805321E-1,3.6144558E-1,1.5133455E0,-6.429809E-2,7.4923545E-1,1.2369475E0,-1.0212395E0,-1.2028099E-1,-1.1579219E0,-1.8805373E-1,7.967361E-3,-1.0987294E-1,5.9778787E-2,1.0477827E-2,2.377121E-1,-3.185332E-1,-5.629613E-1,-1.5045875E0,-2.2213774E0,2.8144053E-1,2.3739162E-1,5.080256E-1,1.7091078E0,1.2407111E0,4.880949E-1,1.152358E-1,1.3233761E-1,-1.0604045E-2,-1.7862251E-2,-1.3023164E0,6.504099E-2,-5.8066744E-1,-1.0630057E0,-1.338429E0,-4.815084E-2,1.2446302E-1,-0E0,1.0947629E-1,-1.3515042E-1,-2.3337709E-2,-9.304834E-2,-4.818959E-2,-2.9141447E-2,-1.7998698E-1,-2.2881328E-1,-1.10290185E-1,3.003942E-2,-9.446435E-2,2.908141E-2,-3.9812833E-2,1.1469418E-1,4.7209527E-2,1.7509645E-1,8.784907E-2,1.3017082E-1,4.2359468E-2,6.8750545E-2,-1.5931899E-2,-9.0232514E-2,-1.75172E-1,-1.7189344E-2,-8.078679E-2,-1.2030291E-1,-5.804174E-2,-1.6429232E-1,-1.0853634E-1,2.1004438E-2,-1.2354986E-2],"categories":[],"categories_nodes":[],"categories_segments":[],"categories_sizes":[],"default_left":[0,0,0,0,0,0,0,0,0,0,0,0,0,0,0,0,0,0,0,0,0,0,0,0,0,0,0,0,0,0,0,0,0,0,0,0,0,0,0,0,0,0,0,0,0,0,0,0,0,0,0,0,0,0,0,0,0,0,0,0,0,0,0,0,0,0,0,0,0,0,0,0,0,0,0,0,0,0,0,0,0,0,0,0,0],"id":9,"left_children":[1,3,5,7,9,11,13,15,17,19,21,23,25,27,29,31,33,35,37,39,-1,41,43,45,47,49,-1,51,-1,-1,-1,53,55,57,59,61,63,65,67,69,71,73,-1,-1,-1,-1,75,-1,77,79,81,-1,83,-1,-1,-1,-1,-1,-1,-1,-1,-1,-1,-1,-1,-1,-1,-1,-1,-1,-1,-1,-1,-1,-1,-1,-1,-1,-1,-1,-1,-1,-1,-1,-1],"loss_changes":[4.0160147E2,2.9416614E2,4.5376465E1,2.2379417E2,1.6639221E1,8.165222E0,2.015518E0,1.8405594E1,2.4599915E1,1.6142868E1,7.2255707E0,5.632514E0,5.718231E0,4.3488603E0,2.9236162E-1,8.601682E0,1.1506851E1,3.09006E2,1.3897331E1,3.3486328E0,0E0,1.0221745E1,6.2978363E0,3.1718855E0,5.6929317E0,2.723114E0,0E0,1.7919014E0,0E0,0E0,0E0,6.581315E0,1.8350357E1,1.0999962E1,4.281561E0,1.0945129E0,1.676537E1,1.4432394E1,7.42321E0,2.8486633E-1,1.7183151E0,8.5539255E0,0E0,0E0,0E0,0E0,1.313076E-1,0E0,6.918926E-1,1.0813644E1,4.416794E0,0E0,5.864577E-1,0E0,0E0,0E0,0E0,0E0,0E0,0E0,0E0,0E0,0E0,0E0,0E0,0E0,0E0,0E0,0E0,0E0,0E0,0E0,0E0,0E0,0E0,0E0,0E0,0E0,0E0,0E0,0E0,0E0,0E0,0E0,0E0],"parents":[2147483647,0,0,1,1,2,2,3,3,4,4,5,5,6,6,7,7,8,8,9,9,10,10,11,11,12,12,13,13,14,14,15,15,16,16,17,17,18,18,19,19,21,21,22,22,23,23,24,24,25,25,27,27,31,31,32,32,33,33,34,34,35,35,36,36,37,37,38,38,39,39,40,40,41,41,46,46,48,48,49,49,50,50,52,52],"right_children":[2,4,6,8,10,12,14,16,18,20,22,24,26,28,30,32,34,36,38,40,-1,42,44,46,48,50,-1,52,-1,-1,-1,54,56,58,60,62,64,66,68,70,72,74,-1,-1,-1,-1,76,-1,78,80,82,-1,84,-1,-1,-1,-1,-1,-1,-1,-1,-1,-1,-1,-1,-1,-1,-1,-1,-1,-1,-1,-1,-1,-1,-1,-1,-1,-1,-1,-1,-1,-1,-1,-1],"split_conditions":[1E0,1E0,1E0,2E0,3E0,2.2E1,2.77E2,1E0,4.3E1,1E0,1E0,1.2E1,2.2E1,2.68E2,1E0,3E1,1E0,4E0,1E0,1E0,-6.429809E-2,1E0,2.2E1,6E0,1.7E1,6E1,-1.8805373E-1,6.5E1,-1.0987294E-1,5.9778787E-2,1.0477827E-2,8E0,5.7E1,2.7E1,2.7E1,4E1,8.4E1,1E0,5.7E1,2.2E1,2.2E1,2.77E2,1.152358E-1,1.3233761E-1,-1.0604045E-2,-1.7862251E-2,1.1E1,6.504099E-2,3E1,5.2E1,8E0,-4.815084E-2,7E1,-0E0,1.0947629E-1,-1.3515042E-1,-2.3337709E-2,-9.304834E-2,-4.818959E-2,-2.9141447E-2,-1.7998698E-1,-2.2881328E-1,-1.10290185E-1,3.003942E-2,-9.446435E-2,2.908141E-2,-3.9812833E-2,1.1469418E-1,4.7209527E-2,1.7509645E-1,8.784907E-2,1.3017082E-1,4.2359468E-2,6.8750545E-2,-1.5931899E-2,-9.0232514E-2,-1.75172E-1,-1.7189344E-2,-8.078679E-2,-1.2030291E-1,-5.804174E-2,-1.6429232E-1,-1.0853634E-1,2.1004438E-2,-1.2354986E-2],"split_indices":[17,6,6,4,3,0,5,4,5,11,7,0,12,5,8,5,11,3,21,8,0,8,12,0,0,0,0,5,0,0,0,3,5,0,0,5,0,18,5,12,12,5,0,0,0,0,0,0,5,0,4,0,0,0,0,0,0,0,0,0,0,0,0,0,0,0,0,0,0,0,0,0,0,0,0,0,0,0,0,0,0,0,0,0,0],"split_type":[0,0,0,0,0,0,0,0,0,0,0,0,0,0,0,0,0,0,0,0,0,0,0,0,0,0,0,0,0,0,0,0,0,0,0,0,0,0,0,0,0,0,0,0,0,0,0,0,0,0,0,0,0,0,0,0,0,0,0,0,0,0,0,0,0,0,0,0,0,0,0,0,0,0,0,0,0,0,0,0,0,0,0,0,0],"sum_hessian":[2.783E3,2.446E3,3.37E2,2.182E3,2.64E2,2.97E2,4E1,6.45E2,1.537E3,1.1E2,1.54E2,2.8E1,2.69E2,3.3E1,7E0,2.44E2,4.01E2,7.63E2,7.74E2,1.07E2,3E0,1.03E2,5.1E1,1.4E1,1.4E1,2.55E2,1.4E1,3E1,3E0,4E0,3E0,3.1E1,2.13E2,3.88E2,1.3E1,5.2E1,7.11E2,4.21E2,3.53E2,5.9E1,4.8E1,6.4E1,3.9E1,4.8E1,3E0,4E0,1E1,5E0,9E0,1.72E2,8.3E1,5E0,2.5E1,2.5E1,6E0,1.5E1,1.98E2,6.8E1,3.2E2,3E0,1E1,4.8E1,4E0,7.01E2,1E1,3.89E2,3.2E1,1.7E1,3.36E2,5.5E1,4E0,4.4E1,4E0,4.9E1,1.5E1,7E0,3E0,4E0,5E0,1.32E2,4E1,3.5E1,4.8E1,1.9E1,6E0],"tree_param":{"num_deleted":"0","num_feature":"23","num_nodes":"85","size_leaf_vector":"1"}},{"base_weights":[-5.3152745E-3,1.23905964E-1,-9.385199E-1,2.2322865E-2,9.7980094E-1,-1.0432235E0,-5.8674075E-2,-3.483399E-1,1.6930635E-1,1.2754334E0,7.679262E-1,-9.861796E-1,-1.4592389E0,5.4974508E-2,-1.3146827E-1,-8.22492E-2,-5.133825E-1,-5.75416E-2,2.839772E-1,1.5829973E-1,9.236749E-1,5.549462E-1,1.22017525E-1,-1.1845274E0,-8.803836E-1,-1.511731E-1,-6.626154E-2,3.5045603E-3,-4.2309368E-1,-9.929478E-3,-6.207211E-1,3.8031256E-1,-5.487832E-1,-7.2521955E-4,-1.9787958E-1,5.6587917E-1,1.7402335E-1,9.5796995E-2,3.897072E-2,2.8566614E-1,1.04669355E-1,1.6982615E-1,-1.2844791E0,-9.520148E-1,-1.812371E-1,1.119205E-1,-5.415553E-2,-9.0439096E-2,-1.1705835E-1,-2.9295254E-2,2.4678458E-2,-7.918554E-2,5.790485E-2,-1.0354071E-2,7.25497E-2,-1.0984172E-1,-4.583096E-2,-1.6556164E-2,5.4143112E-2,-1.3544753E-2,1.4430036E-1,-3.2299098E-2,3.1238114E-2,6.773227E-4,8.893065E-2,-1.263169E-3,3.3482745E-2,-1.3226554E-1,-1.6529296E-2,-7.7871094E-3,-1.0207605E-1,9.748533E-3,-9.4541244E-2,-3.676224E-2,2.1782335E-2,-2.5551846E-2,-0E0],"categories":[],"categories_nodes":[],"categories_segments":[],"categories_sizes":[],"default_left":[0,0,0,0,0,0,0,0,0,0,0,0,0,0,0,0,0,0,0,0,0,0,0,0,0,0,0,0,0,0,0,0,0,0,0,0,0,0,0,0,0,0,0,0,0,0,0,0,0,0,0,0,0,0,0,0,0,0,0,0,0,0,0,0,0,0,0,0,0,0,0,0,0,0,0,0,0],"id":10,"left_children":[1,3,5,7,9,11,13,15,17,19,21,23,25,-1,27,29,31,33,35,-1,37,39,-1,41,43,-1,-1,45,47,49,51,53,55,57,-1,59,61,-1,-1,63,-1,65,67,69,71,73,-1,-1,75,-1,-1,-1,-1,-1,-1,-1,-1,-1,-1,-1,-1,-1,-1,-1,-1,-1,-1,-1,-1,-1,-1,-1,-1,-1,-1,-1,-1],"loss_changes":[3.3411105E2,2.114138E2,3.0874084E1,1.1859239E2,1.4976578E1,5.459442E0,1.6691532E0,2.703849E1,4.059302E1,9.755112E0,1.3882324E1,4.374481E0,2.0262146E-1,0E0,1.381733E0,9.199E0,1.2279396E1,5.699978E1,3.1939613E1,0E0,4.4415283E-1,1.3604042E1,0E0,1.2512917E1,8.678574E0,0E0,0E0,1.4358838E0,1.4122219E0,1.5407328E1,6.2288103E0,2.6425936E0,1.759085E1,4.5629284E1,0E0,1.7871988E2,5.14679E1,0E0,0E0,1.168894E1,0E0,2.4718952E-1,3.2215729E0,9.545807E0,4.010827E0,1.1315808E0,0E0,0E0,1.5153751E-1,0E0,0E0,0E0,0E0,0E0,0E0,0E0,0E0,0E0,0E0,0E0,0E0,0E0,0E0,0E0,0E0,0E0,0E0,0E0,0E0,0E0,0E0,0E0,0E0,0E0,0E0,0E0,0E0],"parents":[2147483647,0,0,1,1,2,2,3,3,4,4,5,5,6,6,7,7,8,8,9,9,10,10,11,11,12,12,14,14,15,15,16,16,17,17,18,18,20,20,21,21,23,23,24,24,27,27,28,28,29,29,30,30,31,31,32,32,33,33,35,35,36,36,39,39,41,41,42,42,43,43,44,44,45,45,48,48],"right_children":[2,4,6,8,10,12,14,16,18,20,22,24,26,-1,28,30,32,34,36,-1,38,40,-1,42,44,-1,-1,46,48,50,52,54,56,58,-1,60,62,-1,-1,64,-1,66,68,70,72,74,-1,-1,76,-1,-1,-1,-1,-1,-1,-1,-1,-1,-1,-1,-1,-1,-1,-1,-1,-1,-1,-1,-1,-1,-1,-1,-1,-1,-1,-1,-1],"split_conditions":[1E0,1E0,1E0,2E0,2E0,7.3E1,2.6E1,1E0,2E0,1E0,1E0,2E0,3E0,5.4974508E-2,1E0,7.8E1,2E1,1E0,3E0,1.5829973E-1,2.2E1,1E0,1.22017525E-1,1E0,1E0,-1.511731E-1,-6.626154E-2,3E0,2E0,4.6E1,8.4E1,2E0,2.7E1,9E0,-1.9787958E-1,1E0,8E0,9.5796995E-2,3.897072E-2,3E0,1.04669355E-1,4.3E1,7.5E1,1.9E1,3E0,3.2E1,-5.415553E-2,-9.0439096E-2,5E1,-2.9295254E-2,2.4678458E-2,-7.918554E-2,5.790485E-2,-1.0354071E-2,7.25497E-2,-1.0984172E-1,-4.583096E-2,-1.6556164E-2,5.4143112E-2,-1.3544753E-2,1.4430036E-1,-3.2299098E-2,3.1238114E-2,6.773227E-4,8.893065E-2,-1.263169E-3,3.3482745E-2,-1.3226554E-1,-1.6529296E-2,-7.7871094E-3,-1.0207605E-1,9.748533E-3,-9.4541244E-2,-3.676224E-2,2.1782335E-2,-2.5551846E-2,-0E0],"split_indices":[17,6,6,4,4,0,0,4,2,8,7,2,20,0,20,0,0,11,2,0,12,8,0,4,20,0,0,2,2,0,0,2,0,4,0,21,4,0,0,20,0,0,12,0,20,0,0,0,0,0,0,0,0,0,0,0,0,0,0,0,0,0,0,0,0,0,0,0,0,0,0,0,0,0,0,0,0],"split_type":[0,0,0,0,0,0,0,0,0,0,0,0,0,0,0,0,0,0,0,0,0,0,0,0,0,0,0,0,0,0,0,0,0,0,0,0,0,0,0,0,0,0,0,0,0,0,0,0,0,0,0,0,0,0,0,0,0,0,0,0,0,0,0,0,0,0,0,0,0,0,0,0,0,0,0,0,0],"sum_hessian":[2.768E3,2.432E3,3.36E2,2.175E3,2.57E2,3E2,3.6E1,6.17E2,1.558E3,1.05E2,1.52E2,2.67E2,3.3E1,3E0,3.3E1,2.37E2,3.8E2,5.23E2,1.035E3,5.4E1,5.1E1,1.05E2,4.7E1,8.9E1,1.78E2,3E1,3E0,2.3E1,1E1,2.1E2,2.7E1,1.4E1,3.66E2,5.09E2,1.4E1,2.89E2,7.46E2,4.7E1,4E0,6.9E1,3.6E1,6E0,8.3E1,1.61E2,1.7E1,2E1,3E0,3E0,7E0,1E2,1.1E2,2.4E1,3E0,6E0,8E0,5E1,3.16E2,3.91E2,1.18E2,1.61E2,1.28E2,1.62E2,5.84E2,4.8E1,2.1E1,3E0,3E0,8E1,3E0,1.2E1,1.49E2,1.3E1,4E0,3E0,1.7E1,3E0,4E0],"tree_param":{"num_deleted":"0","num_feature":"23","num_nodes":"77","size_leaf_vector":"1"}},{"base_weights":[-2.9310748E-2,1.10402405E-1,-6.3783175E-1,7.046859E-2,9.712681E-1,-7.001139E-1,2.682551E-1,-2.3129924E-1,1.5227017E-1,1.070302E0,-1.10443585E-1,-4.0330812E-1,-8.7460095E-1,6.711228E-2,1.3458063E-2,-2.0673748E-2,-4.8247218E-1,5.652673E-1,1.1043329E-1,1.6790781E-2,1.0965308E0,-6.1069864E-1,-2.1829279E-1,5.537628E-2,-8.9095473E-1,1.3369934E-1,-5.3605255E-2,4.6731003E-2,-8.549915E-1,-6.7322296E-1,-1.6913801E-1,3.0282474E-1,9.899131E-1,2.9689735E-2,3.1901652E-1,1.01983E-1,1.3956639E-1,-9.276646E-1,-3.061142E-1,-3.215924E-1,5.404871E-1,-8.5721135E-1,-1.5674649E-1,2.3794562E-2,5.9589855E-2,-8.745986E-3,5.2000403E-2,-6.070872E-4,-1.23864174E-1,-5.811376E-3,-9.860914E-2,6.334699E-3,-9.363705E-2,-3.4428567E-2,4.9599204E-2,7.630486E-2,1.2847969E-1,-6.519969E-2,1.0422383E-2,-1.7573963E-1,4.6789236E-2,-1.5366596E-1,-2.0638686E-2,-3.820898E-3,-1.2299615E-1,-4.80201E-2,-1.6357526E-3,9.409266E-2,1.05755115E-2,-9.807255E-2,-6.8786964E-2,-8.795784E-3,1.2264995E-2],"categories":[],"categories_nodes":[],"categories_segments":[],"categories_sizes":[],"default_left":[0,0,0,0,0,0,0,0,0,0,0,0,0,0,0,0,0,0,0,0,0,0,0,0,0,0,0,0,0,0,0,0,0,0,0,0,0,0,0,0,0,0,0,0,0,0,0,0,0,0,0,0,0,0,0,0,0,0,0,0,0,0,0,0,0,0,0,0,0,0,0,0,0],"id":11,"left_children":[1,3,5,7,9,11,13,15,17,19,-1,21,23,-1,25,27,29,31,33,-1,35,37,39,-1,41,43,-1,45,47,49,51,53,55,57,59,-1,-1,61,63,65,67,69,-1,-1,71,-1,-1,-1,-1,-1,-1,-1,-1,-1,-1,-1,-1,-1,-1,-1,-1,-1,-1,-1,-1,-1,-1,-1,-1,-1,-1,-1,-1],"loss_changes":[2.3630424E2,7.752088E1,2.9519745E1,5.3371788E1,2.173516E1,2.4688797E1,3.4125926E0,2.4328188E1,2.9260757E1,1.9616318E0,0E0,6.767206E0,7.651657E0,0E0,1.4850594E0,1.4292499E1,1.23533325E1,1.6956394E1,2.5993008E1,0E0,4.688797E-1,7.7987995E0,7.8333287E0,0E0,5.3078766E0,1.028544E-1,0E0,1.49498205E1,6.056093E0,2.4856556E1,1.4594593E1,1.2435988E1,2.7618713E0,5.6715904E1,1.3392734E2,0E0,0E0,1.7517982E1,1.0963846E1,4.1544094E0,1.8848302E0,5.2241974E0,0E0,0E0,1.3521406E-1,0E0,0E0,0E0,0E0,0E0,0E0,0E0,0E0,0E0,0E0,0E0,0E0,0E0,0E0,0E0,0E0,0E0,0E0,0E0,0E0,0E0,0E0,0E0,0E0,0E0,0E0,0E0,0E0],"parents":[2147483647,0,0,1,1,2,2,3,3,4,4,5,5,6,6,7,7,8,8,9,9,11,11,12,12,14,14,15,15,16,16,17,17,18,18,20,20,21,21,22,22,24,24,25,25,27,27,28,28,29,29,30,30,31,31,32,32,33,33,34,34,37,37,38,38,39,39,40,40,41,41,44,44],"right_children":[2,4,6,8,10,12,14,16,18,20,-1,22,24,-1,26,28,30,32,34,-1,36,38,40,-1,42,44,-1,46,48,50,52,54,56,58,60,-1,-1,62,64,66,68,70,-1,-1,72,-1,-1,-1,-1,-1,-1,-1,-1,-1,-1,-1,-1,-1,-1,-1,-1,-1,-1,-1,-1,-1,-1,-1,-1,-1,-1,-1,-1],"split_conditions":[1E0,1E0,1E0,3E0,1E0,1E0,1E0,1.89E2,1.8E1,2E1,-1.10443585E-1,4.8E1,5E0,6.711228E-2,2.2E1,7.4E1,5.3E1,1E0,1E0,1.6790781E-2,3.1E2,4E0,2E0,5.537628E-2,8.2E1,3.6E1,-5.3605255E-2,6.1E1,2E0,2.8E1,7.1E1,7E0,1.2E1,4E0,4.1E1,1.01983E-1,1.3956639E-1,2E2,6E0,1.26E2,1.68E2,5.2E1,-1.5674649E-1,2.3794562E-2,4.4E1,-8.745986E-3,5.2000403E-2,-6.070872E-4,-1.23864174E-1,-5.811376E-3,-9.860914E-2,6.334699E-3,-9.363705E-2,-3.4428567E-2,4.9599204E-2,7.630486E-2,1.2847969E-1,-6.519969E-2,1.0422383E-2,-1.7573963E-1,4.6789236E-2,-1.5366596E-1,-2.0638686E-2,-3.820898E-3,-1.2299615E-1,-4.80201E-2,-1.6357526E-3,9.409266E-2,1.05755115E-2,-9.807255E-2,-6.8786964E-2,-8.795784E-3,1.2264995E-2],"split_indices":[18,8,8,3,11,17,17,5,0,0,0,0,0,0,12,0,0,9,21,0,5,3,20,0,0,0,0,0,3,0,0,0,0,3,5,0,0,5,3,5,5,0,0,0,0,0,0,0,0,0,0,0,0,0,0,0,0,0,0,0,0,0,0,0,0,0,0,0,0,0,0,0,0],"split_type":[0,0,0,0,0,0,0,0,0,0,0,0,0,0,0,0,0,0,0,0,0,0,0,0,0,0,0,0,0,0,0,0,0,0,0,0,0,0,0,0,0,0,0,0,0,0,0,0,0,0,0,0,0,0,0,0,0,0,0,0,0,0,0,0,0,0,0,0,0,0,0,0,0],"sum_hessian":[2.777E3,2.259E3,5.18E2,2.16E3,9.9E1,4.85E2,3.3E1,4.6E2,1.7E3,9.5E1,4E0,1.81E2,3.04E2,1.2E1,2.1E1,2.51E2,2.09E2,1.55E2,1.545E3,3E0,9.2E1,8.4E1,9.7E1,3E0,3.01E2,1.8E1,3E0,2.33E2,1.8E1,1.29E2,8E1,9.7E1,5.8E1,1.115E3,4.3E2,7.7E1,1.5E1,4E1,4.4E1,8.6E1,1.1E1,2.89E2,1.2E1,6E0,1.2E1,1.82E2,5.1E1,6E0,1.2E1,4.4E1,8.5E1,6.2E1,1.8E1,2.2E1,7.5E1,3.5E1,2.3E1,1.09E2,1.006E3,2.8E1,4.02E2,2.1E1,1.9E1,3.5E1,9E0,5.6E1,3E1,5E0,6E0,1.64E2,1.25E2,3E0,9E0],"tree_param":{"num_deleted":"0","num_feature":"23","num_nodes":"73","size_leaf_vector":"1"}},{"base_weights":[5.0674872E-3,9.612488E-2,-6.5562284E-1,6.020432E-2,8.574272E-1,-7.1352196E-1,9.844695E-2,-1.829407E-1,1.6074948E-1,1.5531465E-2,8.745663E-1,-6.1277604E-1,-9.438711E-1,2.065713E-1,-4.958487E-2,-3.9414534E-1,-9.202686E-2,-6.392378E-2,2.7192545E-1,9.557765E-1,6.48699E-1,5.1223077E-2,-6.308999E-1,-9.7871083E-1,5.9700287E-3,3.720231E-2,9.789225E-2,-1.8540616E-1,-9.129249E-1,4.9842086E-1,-1.8505198E-1,4.9208436E-2,-1.5185748E-1,2.3140189E-1,1.3273387E-1,9.8552E-2,4.2289224E-2,-5.5551413E-2,9.758833E-2,-7.091445E-1,-3.256776E-1,-1.3957332E0,-8.478892E-1,3.5624932E-2,2.3522113E-2,-7.883172E-3,-1.2865826E-1,-1.5128966E-1,-5.6389082E-2,1.1546185E-1,1.8584324E-2,-3.0454827E-2,-4.910814E-5,-1.2502714E-2,8.508654E-2,5.3429108E-2,1.0704148E-2,-4.795771E-2,5.2919485E-2,-7.2913356E-2,2.9767588E-2,-2.2830494E-2,-1.07794695E-1,-1.626312E-1,-3.5873476E-2,-4.0291935E-2,-9.285011E-2,1.1271796E-2,-4.358775E-3],"categories":[],"categories_nodes":[],"categories_segments":[],"categories_sizes":[],"default_left":[0,0,0,0,0,0,0,0,0,0,0,0,0,0,0,0,0,0,0,0,0,0,0,0,0,0,0,0,0,0,0,0,0,0,0,0,0,0,0,0,0,0,0,0,0,0,0,0,0,0,0,0,0,0,0,0,0,0,0,0,0,0,0,0,0,0,0,0,0],"id":12,"left_children":[1,3,5,7,9,11,13,15,17,-1,19,21,23,25,-1,27,29,31,33,35,37,-1,39,41,-1,-1,43,45,47,49,51,53,-1,55,-1,-1,-1,57,-1,59,61,63,65,67,-1,-1,-1,-1,-1,-1,-1,-1,-1,-1,-1,-1,-1,-1,-1,-1,-1,-1,-1,-1,-1,-1,-1,-1,-1],"loss_changes":[1.6887827E2,6.734755E1,1.49761505E1,5.767334E1,1.0969086E0,6.5992737E0,1.6799461E0,1.3164093E1,4.1726913E1,0E0,1.2005539E0,4.8818893E0,3.436966E0,3.1217545E-1,0E0,2.2136856E1,2.664531E1,9.12277E1,4.7310043E1,6.6283417E-1,7.5196753E0,0E0,4.9196014E0,3.5567627E0,0E0,0E0,9.280217E-2,1.7248268E1,1.1294434E1,1.3188814E1,9.2101145E0,7.1973015E1,0E0,4.04465E1,0E0,0E0,0E0,2.9762495E0,0E0,3.762024E0,3.0660462E0,4.0002747E0,2.0753822E0,8.510708E-2,0E0,0E0,0E0,0E0,0E0,0E0,0E0,0E0,0E0,0E0,0E0,0E0,0E0,0E0,0E0,0E0,0E0,0E0,0E0,0E0,0E0,0E0,0E0,0E0,0E0],"parents":[2147483647,0,0,1,1,2,2,3,3,4,4,5,5,6,6,7,7,8,8,10,10,11,11,12,12,13,13,15,15,16,16,17,17,18,18,19,19,20,20,22,22,23,23,26,26,27,27,28,28,29,29,30,30,31,31,33,33,37,37,39,39,40,40,41,41,42,42,43,43],"right_children":[2,4,6,8,10,12,14,16,18,-1,20,22,24,26,-1,28,30,32,34,36,38,-1,40,42,-1,-1,44,46,48,50,52,54,-1,56,-1,-1,-1,58,-1,60,62,64,66,68,-1,-1,-1,-1,-1,-1,-1,-1,-1,-1,-1,-1,-1,-1,-1,-1,-1,-1,-1,-1,-1,-1,-1,-1,-1],"split_conditions":[1E0,1E0,1E0,2E0,2E1,6E1,2.2E1,1.02E2,2E0,1.5531465E-2,2.51E2,5E0,1E0,2E0,-4.958487E-2,7.3E1,1.36E2,1E0,1E0,2.2E1,2E0,5.1223077E-2,5.3E1,6.5E1,5.9700287E-3,3.720231E-2,1.75E2,2.2E1,3.8E1,2E0,5.3E1,1E0,-1.5185748E-1,3E0,1.3273387E-1,9.8552E-2,4.2289224E-2,5.8E1,9.758833E-2,3.42E2,2.2E1,5E0,3E0,1.3E2,2.3522113E-2,-7.883172E-3,-1.2865826E-1,-1.5128966E-1,-5.6389082E-2,1.1546185E-1,1.8584324E-2,-3.0454827E-2,-4.910814E-5,-1.2502714E-2,8.508654E-2,5.3429108E-2,1.0704148E-2,-4.795771E-2,5.2919485E-2,-7.2913356E-2,2.9767588E-2,-2.2830494E-2,-1.07794695E-1,-1.626312E-1,-3.5873476E-2,-4.0291935E-2,-9.285011E-2,1.1271796E-2,-4.358775E-3],"split_indices":[17,8,8,4,0,0,12,5,2,0,5,0,10,2,0,5,5,10,10,12,2,0,0,0,0,0,5,12,0,2,0,9,0,2,0,0,0,0,0,5,12,3,3,5,0,0,0,0,0,0,0,0,0,0,0,0,0,0,0,0,0,0,0,0,0,0,0,0,0],"split_type":[0,0,0,0,0,0,0,0,0,0,0,0,0,0,0,0,0,0,0,0,0,0,0,0,0,0,0,0,0,0,0,0,0,0,0,0,0,0,0,0,0,0,0,0,0,0,0,0,0,0,0,0,0,0,0,0,0,0,0,0,0,0,0,0,0,0,0,0,0],"sum_hessian":[2.806E3,2.467E3,3.39E2,2.357E3,1.1E2,3.15E2,2.4E1,6.89E2,1.668E3,3E0,1.07E2,2.22E2,9.3E1,2.1E1,3E0,2.06E2,4.83E2,5.52E2,1.116E3,7.6E1,3.1E1,3E0,2.19E2,9E1,3E0,7E0,1.4E1,1.48E2,5.8E1,6.5E1,4.18E2,5.13E2,3.9E1,1.076E3,4E1,7.1E1,5E0,1E1,2.1E1,1.73E2,4.6E1,1.9E1,7.1E1,1.1E1,3E0,1.36E2,1.2E1,2E1,3.8E1,2E1,4.5E1,2.53E2,1.65E2,4.22E2,9.1E1,3.12E2,7.64E2,6E0,4E0,1.7E2,3E0,4.2E1,4E0,1.5E1,4E0,1.2E1,5.9E1,6E0,5E0],"tree_param":{"num_deleted":"0","num_feature":"23","num_nodes":"69","size_leaf_vector":"1"}},{"base_weights":[-1.3922446E-2,-1.0435456E-1,7.2107434E-1,-2.4244167E-2,-7.231579E-1,8.3520776E-1,1.253525E-3,-4.0522578E-1,8.087879E-2,-6.694722E-1,-1.2076557E0,1.1210586E0,6.5059435E-1,-3.2577488E-1,1.9165356E-1,-6.0164875E-1,-3.1560206E-1,-1.0063937E-1,1.6784996E-1,5.303652E-2,-6.8599516E-1,-1.4791831E0,-7.366478E-1,1.4501269E-1,7.334923E-1,7.105628E-1,4.867563E-3,-6.316612E-1,2.7264578E-2,5.852404E-2,1.1701354E-1,-5.195382E-1,-1.6728197E-1,1.0111862E0,-3.7790024E-1,-2.4330704E-1,4.9097916E-1,7.0303017E-1,1.19763225E-1,-7.155089E-1,-1.5744114E-1,-3.7217367E-2,-1.6983257E-1,-2.838249E-2,-1.0052606E-1,9.583175E-2,5.4194677E-1,5.6430477E-1,9.9549145E-1,-9.240731E-2,5.717452E-1,-1.3467604E-1,-1.6353015E-2,2.2479725E-1,-5.7141747E-2,-1.00141756E-1,-2.9953469E-2,1.3513285E-1,-2.3703698E-2,-6.7675533E-3,-4.9132634E-2,-1.7810019E-2,-1.301E-1,5.5812437E-2,-9.972656E-2,1.6315298E-1,6.438397E-2,-7.948408E-3,2.2089614E-2,-6.5358005E-2,-1.2229073E-1,-4.0049035E-2,2.572144E-2,2.5537878E-2,8.67309E-2,2.8053313E-2,7.441463E-2,1.1340686E-1,7.328512E-2,7.971827E-4,1.11392416E-1,2.9067477E-2,-3.4429256E-2,5.0443888E-2,8.121347E-3,1.8131595E-4,-1.7102739E-2],"categories":[],"categories_nodes":[],"categories_segments":[],"categories_sizes":[],"default_left":[0,0,0,0,0,0,0,0,0,0,0,0,0,0,0,0,0,0,0,0,0,0,0,0,0,0,0,0,0,0,0,0,0,0,0,0,0,0,0,0,0,0,0,0,0,0,0,0,0,0,0,0,0,0,0,0,0,0,0,0,0,0,0,0,0,0,0,0,0,0,0,0,0,0,0,0,0,0,0,0,0,0,0,0,0,0,0],"id":13,"left_children":[1,3,5,7,9,11,13,15,17,19,21,23,25,27,29,31,33,35,37,-1,39,41,43,-1,45,47,49,51,-1,-1,53,55,-1,57,59,61,63,65,67,69,71,-1,-1,-1,-1,-1,73,75,77,-1,79,-1,81,83,85,-1,-1,-1,-1,-1,-1,-1,-1,-1,-1,-1,-1,-1,-1,-1,-1,-1,-1,-1,-1,-1,-1,-1,-1,-1,-1,-1,-1,-1,-1,-1,-1],"loss_changes":[1.8565678E2,1.2324431E2,2.5054916E1,8.833523E1,6.416809E0,1.3025269E1,2.7264712E0,8.11557E0,2.7303282E1,5.5140305E0,2.1418533E0,1.1726624E1,6.236885E0,3.1369002E0,6.838589E-1,1.1928913E1,2.7595436E1,4.73614E1,2.9917816E1,0E0,3.7935486E0,3.042366E0,1.0453811E0,0E0,1.4407654E0,5.491562E0,8.392036E0,4.681735E0,0E0,0E0,4.988884E-1,1.4306049E1,0E0,6.8003464E0,1.1030125E1,3.0794289E1,1.1404888E1,3.998024E0,2.167329E1,6.6173477E0,1.6290648E0,0E0,0E0,0E0,0E0,0E0,2.3701515E0,4.8432007E0,7.656059E-1,0E0,2.935591E0,0E0,8.102448E-1,5.428996E-1,8.43727E-2,0E0,0E0,0E0,0E0,0E0,0E0,0E0,0E0,0E0,0E0,0E0,0E0,0E0,0E0,0E0,0E0,0E0,0E0,0E0,0E0,0E0,0E0,0E0,0E0,0E0,0E0,0E0,0E0,0E0,0E0,0E0,0E0],"parents":[2147483647,0,0,1,1,2,2,3,3,4,4,5,5,6,6,7,7,8,8,9,9,10,10,11,11,12,12,13,13,14,14,15,15,16,16,17,17,18,18,20,20,21,21,22,22,24,24,25,25,26,26,27,27,30,30,31,31,33,33,34,34,35,35,36,36,37,37,38,38,39,39,40,40,46,46,47,47,48,48,50,50,52,52,53,53,54,54],"right_children":[2,4,6,8,10,12,14,16,18,20,22,24,26,28,30,32,34,36,38,-1,40,42,44,-1,46,48,50,52,-1,-1,54,56,-1,58,60,62,64,66,68,70,72,-1,-1,-1,-1,-1,74,76,78,-1,80,-1,82,84,86,-1,-1,-1,-1,-1,-1,-1,-1,-1,-1,-1,-1,-1,-1,-1,-1,-1,-1,-1,-1,-1,-1,-1,-1,-1,-1,-1,-1,-1,-1,-1,-1],"split_conditions":[1E0,1E0,1E0,3E0,3.03E2,3E0,2E0,1.02E2,2E0,6E0,3E0,1E0,2.2E1,2.97E2,2.6E1,4.5E1,1.09E2,1E0,1.9E1,5.303652E-2,2.41E2,2E0,3.37E2,1.4501269E-1,4.5E1,1E0,4.5E1,1E0,2.7264578E-2,5.852404E-2,1E0,3.4E1,-1.6728197E-1,1E0,1.75E2,2.2E1,8.3E1,5E0,4.3E1,7.3E1,6.3E1,-3.7217367E-2,-1.6983257E-1,-2.838249E-2,-1.0052606E-1,9.583175E-2,6.5E1,2E0,1E0,-9.240731E-2,2E0,-1.3467604E-1,8.3E1,1E0,1.57E2,-1.00141756E-1,-2.9953469E-2,1.3513285E-1,-2.3703698E-2,-6.7675533E-3,-4.9132634E-2,-1.7810019E-2,-1.301E-1,5.5812437E-2,-9.972656E-2,1.6315298E-1,6.438397E-2,-7.948408E-3,2.2089614E-2,-6.5358005E-2,-1.2229073E-1,-4.0049035E-2,2.572144E-2,2.5537878E-2,8.67309E-2,2.8053313E-2,7.441463E-2,1.1340686E-1,7.328512E-2,7.971827E-4,1.11392416E-1,2.9067477E-2,-3.4429256E-2,5.0443888E-2,8.121347E-3,1.8131595E-4,-1.7102739E-2],"split_indices":[6,17,17,3,5,3,2,5,2,0,3,8,12,5,0,12,5,9,0,0,5,3,5,0,0,7,12,8,0,0,20,0,0,18,5,12,0,0,5,0,0,0,0,0,0,0,0,2,8,0,20,0,5,8,5,0,0,0,0,0,0,0,0,0,0,0,0,0,0,0,0,0,0,0,0,0,0,0,0,0,0,0,0,0,0,0,0],"split_type":[0,0,0,0,0,0,0,0,0,0,0,0,0,0,0,0,0,0,0,0,0,0,0,0,0,0,0,0,0,0,0,0,0,0,0,0,0,0,0,0,0,0,0,0,0,0,0,0,0,0,0,0,0,0,0,0,0,0,0,0,0,0,0,0,0,0,0,0,0,0,0,0,0,0,0,0,0,0,0,0,0,0,0,0,0,0,0],"sum_hessian":[2.792E3,2.487E3,3.05E2,2.203E3,2.84E2,2.63E2,4.2E1,4.76E2,1.727E3,2.58E2,2.6E1,1.01E2,1.62E2,1.5E1,2.7E1,1.47E2,3.29E2,5.59E2,1.168E3,3E0,2.55E2,1.5E1,1.1E1,5.3E1,4.8E1,1.48E2,1.4E1,1E1,5E0,3E0,2.4E1,1.38E2,9E0,1.4E1,3.15E2,4.51E2,1.08E2,9.5E1,1.073E3,2.41E2,1.4E1,3E0,1.2E1,5E0,6E0,2E1,2.8E1,1E2,4.8E1,5E0,9E0,4E0,6E0,1.5E1,9E0,4.2E1,9.6E1,1.1E1,3E0,8.5E1,2.3E2,4.26E2,2.5E1,1.04E2,4E0,4E0,9.1E1,3.61E2,7.12E2,2.17E2,2.4E1,9E0,5E0,1.6E1,1.2E1,4E1,6E1,2.9E1,1.9E1,5E0,4E0,3E0,3E0,4E0,1.1E1,6E0,3E0],"tree_param":{"num_deleted":"0","num_feature":"23","num_nodes":"87","size_leaf_vector":"1"}},{"base_weights":[1.4396958E-3,-8.3180584E-2,6.866626E-1,-4.2941472E-3,-6.550885E-1,7.13078E-1,-1.0420088E-1,-3.576202E-1,8.854606E-2,-6.107197E-1,-1.0654709E0,7.9364944E-1,8.620679E-2,-3.3216283E-1,-1.1958029E0,-8.766485E-2,1.7395957E-1,-7.1096593E-1,-3.7193102E-1,-1.2838649E0,-2.1259409E-1,1.0730976E0,5.7553846E-1,6.1190356E-2,-0E0,1.13683775E-1,-3.4490287E-1,-4.0376376E-2,-1.627857E-1,8.87393E-3,-1.367112E0,1.4195839E-1,1.1788313E0,-1.131578E0,-6.066754E-1,2.305641E-1,-4.8690283E-1,-1.3546345E-1,-6.0174327E-2,-4.3453716E-2,3.7497499E-3,1.3146609E-1,7.8470445E-1,6.736752E-2,6.5451753E-1,-3.966818E-1,1.2869522E-1,-1.10034466E-1,-3.1562258E-2,-1.45404115E-2,6.914609E-2,-7.2215766E-2,-1.415936E-1,5.769201E-2,1.0127455E-2,1.2182881E-1,5.336057E-2,-6.595373E-2,-1.2356051E-1,-4.709887E-2,-8.7749496E-2,-4.9477103E-3,4.027511E-2,-6.1089206E-2,1.0049616E-3,8.283802E-2,-0E0,4.0198714E-2,-1.1307367E-1,1.1078429E-1,5.7305932E-2,-8.50991E-2,2.6101952E-3,4.9084302E-2,-6.471803E-3],"categories":[],"categories_nodes":[],"categories_segments":[],"categories_sizes":[],"default_left":[0,0,0,0,0,0,0,0,0,0,0,0,0,0,0,0,0,0,0,0,0,0,0,0,0,0,0,0,0,0,0,0,0,0,0,0,0,0,0,0,0,0,0,0,0,0,0,0,0,0,0,0,0,0,0,0,0,0,0,0,0,0,0,0,0,0,0,0,0,0,0,0,0,0,0],"id":14,"left_children":[1,3,5,7,9,11,-1,13,15,17,19,21,23,25,27,29,31,33,35,37,39,41,43,-1,45,-1,47,-1,-1,49,51,53,55,57,59,61,63,-1,-1,-1,-1,-1,65,67,69,71,73,-1,-1,-1,-1,-1,-1,-1,-1,-1,-1,-1,-1,-1,-1,-1,-1,-1,-1,-1,-1,-1,-1,-1,-1,-1,-1,-1,-1],"loss_changes":[1.6299382E2,1.1276581E2,1.4820175E1,7.219207E1,4.6987457E0,1.5248505E1,0E0,9.222778E0,2.624236E1,6.2340775E0,4.792776E0,1.5674225E1,1.6045918E0,8.659859E0,3.5882168E0,7.042871E1,3.745299E1,7.605789E0,5.9565744E0,5.12352E-2,4.4454065E-1,6.9092712E0,6.064495E0,0E0,1.672913E0,0E0,9.310078E0,0E0,0E0,5.5968483E1,2.3231506E-2,2.0029394E1,9.1228485E-2,8.124428E-1,5.221077E0,7.303268E-1,4.4410114E0,0E0,0E0,0E0,0E0,0E0,1.8867149E0,9.20167E0,4.108349E0,1.6412977E0,1.8254833E0,0E0,0E0,0E0,0E0,0E0,0E0,0E0,0E0,0E0,0E0,0E0,0E0,0E0,0E0,0E0,0E0,0E0,0E0,0E0,0E0,0E0,0E0,0E0,0E0,0E0,0E0,0E0,0E0],"parents":[2147483647,0,0,1,1,2,2,3,3,4,4,5,5,7,7,8,8,9,9,10,10,11,11,12,12,13,13,14,14,15,15,16,16,17,17,18,18,19,19,20,20,21,21,22,22,24,24,26,26,29,29,30,30,31,31,32,32,33,33,34,34,35,35,36,36,42,42,43,43,44,44,45,45,46,46],"right_children":[2,4,6,8,10,12,-1,14,16,18,20,22,24,26,28,30,32,34,36,38,40,42,44,-1,46,-1,48,-1,-1,50,52,54,56,58,60,62,64,-1,-1,-1,-1,-1,66,68,70,72,74,-1,-1,-1,-1,-1,-1,-1,-1,-1,-1,-1,-1,-1,-1,-1,-1,-1,-1,-1,-1,-1,-1,-1,-1,-1,-1,-1,-1],"split_conditions":[1E0,1E0,1E0,3E0,2.91E2,1E0,-1.0420088E-1,1E0,2E0,1.13E2,1E0,3E0,3E1,3E0,4.1E1,1E0,1E0,4E0,1.26E2,7.5E1,3.22E2,1E0,2.8E1,6.1190356E-2,1.02E2,1.13683775E-1,1E1,-4.0376376E-2,-1.627857E-1,1E0,4E0,2E1,1E0,3.2E1,5.9E1,3E0,2.4E2,-1.3546345E-1,-6.0174327E-2,-4.3453716E-2,3.7497499E-3,1.3146609E-1,2.2E1,3.07E2,3.8E1,1E0,1E0,-1.10034466E-1,-3.1562258E-2,-1.45404115E-2,6.914609E-2,-7.2215766E-2,-1.415936E-1,5.769201E-2,1.0127455E-2,1.2182881E-1,5.336057E-2,-6.595373E-2,-1.2356051E-1,-4.709887E-2,-8.7749496E-2,-4.9477103E-3,4.027511E-2,-6.1089206E-2,1.0049616E-3,8.283802E-2,-0E0,4.0198714E-2,-1.1307367E-1,1.1078429E-1,5.7305932E-2,-8.50991E-2,2.6101952E-3,4.9084302E-2,-6.471803E-3],"split_indices":[6,17,11,3,5,17,0,11,2,5,21,3,0,5,0,10,10,3,5,0,5,8,0,0,5,0,5,0,0,9,0,0,11,0,0,3,5,0,0,0,0,0,12,5,0,8,8,0,0,0,0,0,0,0,0,0,0,0,0,0,0,0,0,0,0,0,0,0,0,0,0,0,0,0,0],"split_type":[0,0,0,0,0,0,0,0,0,0,0,0,0,0,0,0,0,0,0,0,0,0,0,0,0,0,0,0,0,0,0,0,0,0,0,0,0,0,0,0,0,0,0,0,0,0,0,0,0,0,0,0,0,0,0,0,0,0,0,0,0,0,0,0,0,0,0,0,0,0,0,0,0,0,0],"sum_hessian":[2.808E3,2.5E3,3.08E2,2.198E3,3.02E2,3.04E2,4E0,4.57E2,1.741E3,2.75E2,2.7E1,2.69E2,3.5E1,4.45E2,1.2E1,5.68E2,1.173E3,1.92E2,8.3E1,2.1E1,6E0,1.16E2,1.53E2,4E0,3.1E1,3E0,4.42E2,5E0,7E0,5.29E2,3.9E1,1.138E3,3.5E1,3.6E1,1.56E2,1.3E1,7E1,1.8E1,3E0,3E0,3E0,6.1E1,5.5E1,2.1E1,1.32E2,7E0,2.4E1,1.5E1,4.27E2,4.32E2,9.7E1,4E0,3.5E1,9.6E1,1.042E3,3.2E1,3E0,8E0,2.8E1,1.06E2,5E1,5E0,8E0,5.6E1,1.4E1,5.2E1,3E0,1.7E1,4E0,1.8E1,1.14E2,3E0,4E0,8E0,1.6E1],"tree_param":{"num_deleted":"0","num_feature":"23","num_nodes":"75","size_leaf_vector":"1"}},{"base_weights":[5.052092E-3,1.12160765E-1,-4.5687708E-1,3.5933826E-2,7.137035E-1,-5.2966905E-1,1.4039686E-1,-2.1337451E-1,1.3299757E-1,8.853474E-1,5.170999E-1,-8.462087E-1,-4.565038E-1,-1.4194365E-1,2.5371572E-1,4.096579E-1,-2.7995035E-1,2.64715E-2,2.3491508E-1,1.0663449E0,6.466564E-1,2.724177E-1,6.935436E-1,4.6206113E-2,-8.996238E-1,-7.1374804E-1,-3.3836168E-1,3.4067822E-1,-4.4525358E-1,1.9757386E-1,6.096508E-2,-2.0466751E-1,8.6072516E-1,-3.6405763E-1,8.347937E-2,-1.8829676E0,1.6399264E-1,4.69983E-1,-1.4162063E-2,1.1531998E-1,5.9839153E-1,6.6607356E-1,1.7844317E-2,4.305861E-2,7.4970406E-1,7.3766464E-1,2.4689798E-1,-1.2627927E0,-7.0368785E-1,-6.4361286E-1,-1.4961247E-1,-4.2269298E-1,7.197711E-2,8.245192E-3,4.8873495E-2,-1.3010754E-1,2.1536961E-1,2.905436E-1,-1.9739183E-2,4.297985E-2,-1.5398245E-1,1.5569279E-1,7.315688E-2,-2.9196683E-2,-7.0985265E-2,4.481521E-2,-2.3879802E-2,-2.3135813E-1,-8.708916E-2,2.0906666E-2,-2.100089E-2,1.1619906E-2,7.634864E-2,-3.2669242E-2,1.9571627E-2,5.210255E-3,8.0169685E-2,4.402634E-2,7.392331E-2,5.686388E-2,-2.2796545E-2,4.9616307E-2,9.604173E-2,4.3609444E-2,7.911488E-2,-5.7280507E-2,8.732808E-2,-5.2190144E-2,-1.3968168E-1,4.5534994E-2,-8.016407E-2,-7.3034115E-2,-1.4456845E-2,-4.5403432E-2,4.5602407E-2,-1.7866044E-1,3.9792944E-2,3.0694017E-2,4.4956664E-3,3.9107345E-2,3.4920152E-3,-4.1518174E-2,1.4709519E-2],"categories":[],"categories_nodes":[],"categories_segments":[],"categories_sizes":[],"default_left":[0,0,0,0,0,0,0,0,0,0,0,0,0,0,0,0,0,0,0,0,0,0,0,0,0,0,0,0,0,0,0,0,0,0,0,0,0,0,0,0,0,0,0,0,0,0,0,0,0,0,0,0,0,0,0,0,0,0,0,0,0,0,0,0,0,0,0,0,0,0,0,0,0,0,0,0,0,0,0,0,0,0,0,0,0,0,0,0,0,0,0,0,0,0,0,0,0,0,0,0,0,0,0],"id":15,"left_children":[1,3,5,7,9,11,13,15,17,19,21,23,25,27,29,31,33,35,37,39,41,43,45,-1,47,49,51,53,55,57,-1,59,61,63,65,67,69,71,73,-1,75,77,-1,79,81,83,85,87,89,91,-1,93,95,-1,-1,-1,97,99,101,-1,-1,-1,-1,-1,-1,-1,-1,-1,-1,-1,-1,-1,-1,-1,-1,-1,-1,-1,-1,-1,-1,-1,-1,-1,-1,-1,-1,-1,-1,-1,-1,-1,-1,-1,-1,-1,-1,-1,-1,-1,-1,-1,-1],"loss_changes":[1.387987E2,1.0435427E2,2.3069016E1,4.897452E1,8.040863E0,1.0391632E1,1.9028716E0,2.362025E1,1.5786104E1,4.9714737E0,4.981533E0,6.5391197E0,1.1353973E1,2.6506739E0,6.381068E-1,1.5482384E1,1.5739365E1,1.876249E2,4.361347E1,2.1830826E0,3.5126686E-1,5.6903505E0,1.0988693E0,0E0,4.8919983E0,5.407749E0,9.270269E0,1.7020917E-1,6.607916E0,8.0054975E-1,0E0,2.1103498E1,1.5095596E0,1.0087807E1,1.1527952E1,1.8585724E1,1.1287931E1,3.959281E1,2.382183E1,0E0,1.4277377E0,5.14761E-1,0E0,5.4341583E0,2.8603363E-1,5.4839706E-1,4.63785E0,1.8594513E0,6.870926E0,4.6544304E0,0E0,6.2932243E0,2.8439285E1,0E0,0E0,0E0,6.0245007E-2,6.3758445E-1,8.795608E-1,0E0,0E0,0E0,0E0,0E0,0E0,0E0,0E0,0E0,0E0,0E0,0E0,0E0,0E0,0E0,0E0,0E0,0E0,0E0,0E0,0E0,0E0,0E0,0E0,0E0,0E0,0E0,0E0,0E0,0E0,0E0,0E0,0E0,0E0,0E0,0E0,0E0,0E0,0E0,0E0,0E0,0E0,0E0,0E0],"parents":[2147483647,0,0,1,1,2,2,3,3,4,4,5,5,6,6,7,7,8,8,9,9,10,10,11,11,12,12,13,13,14,14,15,15,16,16,17,17,18,18,19,19,20,20,21,21,22,22,24,24,25,25,26,26,27,27,28,28,29,29,31,31,32,32,33,33,34,34,35,35,36,36,37,37,38,38,40,40,41,41,43,43,44,44,45,45,46,46,47,47,48,48,49,49,51,51,52,52,56,56,57,57,58,58],"right_children":[2,4,6,8,10,12,14,16,18,20,22,24,26,28,30,32,34,36,38,40,42,44,46,-1,48,50,52,54,56,58,-1,60,62,64,66,68,70,72,74,-1,76,78,-1,80,82,84,86,88,90,92,-1,94,96,-1,-1,-1,98,100,102,-1,-1,-1,-1,-1,-1,-1,-1,-1,-1,-1,-1,-1,-1,-1,-1,-1,-1,-1,-1,-1,-1,-1,-1,-1,-1,-1,-1,-1,-1,-1,-1,-1,-1,-1,-1,-1,-1,-1,-1,-1,-1,-1,-1],"split_conditions":[1E0,1E0,1E0,2E0,1E0,3E0,2E0,2.8E1,4.2E1,1E0,2E0,3E0,2E0,2.38E2,3.13E2,1.2E1,3E0,4E0,3E0,3E0,3.4E2,1E0,3.32E2,4.6206113E-2,1.33E2,1E0,1E0,1.57E2,2.77E2,3E0,6.096508E-2,9E0,1.4E1,3.21E2,4E0,3E0,1E0,2E0,4E0,1.1531998E-1,2E0,1.18E2,1.7844317E-2,1.21E2,2.72E2,6.5E1,3.5E2,1E0,1.39E2,1E0,-1.4961247E-1,1E0,3E1,8.245192E-3,4.8873495E-2,-1.3010754E-1,3.55E2,2.34E2,8E1,4.297985E-2,-1.5398245E-1,1.5569279E-1,7.315688E-2,-2.9196683E-2,-7.0985265E-2,4.481521E-2,-2.3879802E-2,-2.3135813E-1,-8.708916E-2,2.0906666E-2,-2.100089E-2,1.1619906E-2,7.634864E-2,-3.2669242E-2,1.9571627E-2,5.210255E-3,8.0169685E-2,4.402634E-2,7.392331E-2,5.686388E-2,-2.2796545E-2,4.9616307E-2,9.604173E-2,4.3609444E-2,7.911488E-2,-5.7280507E-2,8.732808E-2,-5.2190144E-2,-1.3968168E-1,4.5534994E-2,-8.016407E-2,-7.3034115E-2,-1.4456845E-2,-4.5403432E-2,4.5602407E-2,-1.7866044E-1,3.9792944E-2,3.0694017E-2,4.4956664E-3,3.9107345E-2,3.4920152E-3,-4.1518174E-2,1.4709519E-2],"split_indices":[18,6,6,4,20,3,2,5,5,8,2,5,2,5,5,5,2,3,2,3,5,7,5,0,5,10,20,5,5,2,0,5,5,5,2,2,10,2,3,0,2,5,0,5,5,5,5,4,5,9,0,10,5,0,0,0,5,5,5,0,0,0,0,0,0,0,0,0,0,0,0,0,0,0,0,0,0,0,0,0,0,0,0,0,0,0,0,0,0,0,0,0,0,0,0,0,0,0,0,0,0,0,0],"split_type":[0,0,0,0,0,0,0,0,0,0,0,0,0,0,0,0,0,0,0,0,0,0,0,0,0,0,0,0,0,0,0,0,0,0,0,0,0,0,0,0,0,0,0,0,0,0,0,0,0,0,0,0,0,0,0,0,0,0,0,0,0,0,0,0,0,0,0,0,0,0,0,0,0,0,0,0,0,0,0,0,0,0,0,0,0,0,0,0,0,0,0,0,0,0,0,0,0,0,0,0,0,0,0],"sum_hessian":[2.804E3,2.277E3,5.27E2,2.022E3,2.55E2,4.7E2,5.7E1,5.66E2,1.456E3,1.34E2,1.21E2,8.6E1,3.84E2,1.6E1,4.1E1,5.4E1,5.12E2,7.13E2,7.43E2,7.4E1,6E1,5.2E1,6.9E1,3E0,8.3E1,1.19E2,2.65E2,6E0,1E1,3.7E1,4E0,2.3E1,3.1E1,4.16E2,9.6E1,4.7E1,6.66E2,3.82E2,3.61E2,6.1E1,1.3E1,5.7E1,3E0,3.6E1,1.6E1,6.2E1,7E0,2.7E1,5.6E1,1.11E2,8E0,2.2E2,4.5E1,3E0,3E0,4E0,6E0,2.6E1,1.1E1,1.6E1,7E0,3E0,2.8E1,3.46E2,7E1,4.5E1,5.1E1,3.2E1,1.5E1,5.95E2,7.1E1,1.74E2,2.08E2,1.45E2,2.16E2,4E0,9E0,1.6E1,4.1E1,1.2E1,2.4E1,9E0,7E0,1.1E1,5.1E1,3E0,4E0,5E0,2.2E1,4E0,5.2E1,9.4E1,1.7E1,2.13E2,7E0,6E0,3.9E1,3E0,3E0,1.8E1,8E0,3E0,8E0],"tree_param":{"num_deleted":"0","num_feature":"23","num_nodes":"103","size_leaf_vector":"1"}},{"base_weights":[1.9601712E-2,8.933776E-2,-5.0327855E-1,2.2489788E-2,6.6112846E-1,-5.567675E-1,-8.2012475E-2,-2.1827447E-1,1.1986654E-1,8.501973E-1,5.0640184E-1,-6.413152E-1,-3.9040473E-1,-1.7415479E-1,3.3663988E-1,-4.1289523E-1,-8.2439974E-2,1.4306664E-1,-4.3987578E-1,8.955456E-1,-5.8443047E-2,4.1110906E-1,7.2338897E-1,-7.653836E-1,-5.010977E-1,-3.974806E-2,-4.818483E-1,-4.514066E-2,-8.418029E-2,5.1627923E-2,4.7840574E-3,8.0016935E-1,-4.5031205E-1,-2.489524E-2,-5.1981956E-1,1.6280071E-1,-2.595596E-1,-1.8193433E-1,1.6352779E-1,1.06271364E-1,6.282427E-1,2.522449E-1,6.806747E-1,-2.846191E-3,7.845175E-1,-3.5773602E-1,-8.640402E-1,4.6757642E-2,-5.6329244E-1,-1.8856089E-1,6.520499E-2,-2.5655428E-1,-5.919711E-1,6.877984E-2,-4.9097914E-2,2.1148609E-1,-3.9161775E-2,4.8232395E-2,-4.9142692E-2,7.0254795E-2,-5.486966E-3,-7.172201E-2,1.9332407E-2,2.7258847E-2,4.48237E-3,-1.2703562E-1,1.04984105E-1,4.2093834E-3,9.0892725E-2,6.585858E-2,3.551535E-2,4.138373E-2,-3.7037246E-2,7.426413E-2,2.200735E-2,9.367972E-2,5.492581E-2,-7.3144145E-2,2.10698E-2,-1.431002E-1,-7.955295E-2,-4.0131114E-2,-8.397326E-2,3.517829E-2,-3.1811178E-2,-5.8156874E-2,-3.8125794E-3,-6.638974E-2,-2.5443701E-2,1.8513251E-2,-2.093309E-2],"categories":[],"categories_nodes":[],"categories_segments":[],"categories_sizes":[],"default_left":[0,0,0,0,0,0,0,0,0,0,0,0,0,0,0,0,0,0,0,0,0,0,0,0,0,0,0,0,0,0,0,0,0,0,0,0,0,0,0,0,0,0,0,0,0,0,0,0,0,0,0,0,0,0,0,0,0,0,0,0,0,0,0,0,0,0,0,0,0,0,0,0,0,0,0,0,0,0,0,0,0,0,0,0,0,0,0,0,0,0,0],"id":16,"left_children":[1,3,5,7,9,11,13,15,17,19,21,23,25,27,29,31,33,35,37,39,-1,41,43,45,47,49,51,53,-1,-1,-1,55,57,59,61,63,65,-1,67,-1,69,71,73,-1,75,77,79,-1,81,83,-1,85,87,89,-1,-1,-1,-1,-1,-1,-1,-1,-1,-1,-1,-1,-1,-1,-1,-1,-1,-1,-1,-1,-1,-1,-1,-1,-1,-1,-1,-1,-1,-1,-1,-1,-1,-1,-1,-1,-1],"loss_changes":[1.0071604E2,9.310456E1,7.2137146E0,5.1219856E1,6.8935623E0,3.6973495E0,1.5082515E0,1.6544804E1,2.0239592E1,7.906044E0,2.5460167E0,2.7777634E0,3.1352167E0,2.6296592E0,2.8204697E-1,1.2035709E1,9.295416E0,1.1911032E1,5.207038E1,4.07856E0,0E0,4.103092E0,2.0282364E0,3.5100098E0,5.815632E0,2.3414671E0,1.7232647E0,1.4981134E0,0E0,0E0,0E0,1.3535202E1,9.862587E0,7.169328E0,6.2443657E0,1.8426205E1,9.400336E1,0E0,3.8493764E0,0E0,3.7614822E-2,6.797896E0,7.9634285E-1,0E0,7.340355E-1,4.6671515E0,1.6686935E0,0E0,3.4346008E0,1.4385774E0,0E0,1.9036452E0,1.0016804E0,7.8058934E-1,0E0,0E0,0E0,0E0,0E0,0E0,0E0,0E0,0E0,0E0,0E0,0E0,0E0,0E0,0E0,0E0,0E0,0E0,0E0,0E0,0E0,0E0,0E0,0E0,0E0,0E0,0E0,0E0,0E0,0E0,0E0,0E0,0E0,0E0,0E0,0E0,0E0],"parents":[2147483647,0,0,1,1,2,2,3,3,4,4,5,5,6,6,7,7,8,8,9,9,10,10,11,11,12,12,13,13,14,14,15,15,16,16,17,17,18,18,19,19,21,21,22,22,23,23,24,24,25,25,26,26,27,27,31,31,32,32,33,33,34,34,35,35,36,36,38,38,40,40,41,41,42,42,44,44,45,45,46,46,48,48,49,49,51,51,52,52,53,53],"right_children":[2,4,6,8,10,12,14,16,18,20,22,24,26,28,30,32,34,36,38,40,-1,42,44,46,48,50,52,54,-1,-1,-1,56,58,60,62,64,66,-1,68,-1,70,72,74,-1,76,78,80,-1,82,84,-1,86,88,90,-1,-1,-1,-1,-1,-1,-1,-1,-1,-1,-1,-1,-1,-1,-1,-1,-1,-1,-1,-1,-1,-1,-1,-1,-1,-1,-1,-1,-1,-1,-1,-1,-1,-1,-1,-1,-1],"split_conditions":[1E0,1E0,1E0,2E0,3E0,9E0,2.97E2,2E0,1E0,1E0,1E0,1.15E2,3.6E1,2.68E2,1E0,9E0,7.2E1,1E0,2E0,1E0,-5.8443047E-2,1E0,2.3E1,2.2E1,1.31E2,3.4E1,4.5E1,2E0,-8.418029E-2,5.1627923E-2,4.7840574E-3,4.3E1,2E0,2E1,2.74E2,3E0,2E0,-1.8193433E-1,1E0,1.06271364E-1,1E0,3E0,3.22E2,-2.846191E-3,1E0,1.4E1,2.7E1,4.6757642E-2,2.93E2,3E1,6.520499E-2,2E0,4E0,3E0,-4.9097914E-2,2.1148609E-1,-3.9161775E-2,4.8232395E-2,-4.9142692E-2,7.0254795E-2,-5.486966E-3,-7.172201E-2,1.9332407E-2,2.7258847E-2,4.48237E-3,-1.2703562E-1,1.04984105E-1,4.2093834E-3,9.0892725E-2,6.585858E-2,3.551535E-2,4.138373E-2,-3.7037246E-2,7.426413E-2,2.200735E-2,9.367972E-2,5.492581E-2,-7.3144145E-2,2.10698E-2,-1.431002E-1,-7.955295E-2,-4.0131114E-2,-8.397326E-2,3.517829E-2,-3.1811178E-2,-5.8156874E-2,-3.8125794E-3,-6.638974E-2,-2.5443701E-2,1.8513251E-2,-2.093309E-2],"split_indices":[17,6,6,4,3,4,5,2,11,11,7,5,0,5,8,5,0,10,2,8,0,8,5,0,5,0,5,20,0,0,0,0,3,0,5,2,2,0,10,0,18,2,5,0,8,0,0,0,5,5,0,2,2,2,0,0,0,0,0,0,0,0,0,0,0,0,0,0,0,0,0,0,0,0,0,0,0,0,0,0,0,0,0,0,0,0,0,0,0,0,0],"split_type":[0,0,0,0,0,0,0,0,0,0,0,0,0,0,0,0,0,0,0,0,0,0,0,0,0,0,0,0,0,0,0,0,0,0,0,0,0,0,0,0,0,0,0,0,0,0,0,0,0,0,0,0,0,0,0,0,0,0,0,0,0,0,0,0,0,0,0,0,0,0,0,0,0,0,0,0,0,0,0,0,0,0,0,0,0,0,0,0,0,0,0],"sum_hessian":[2.761E3,2.437E3,3.24E2,2.183E3,2.54E2,2.87E2,3.7E1,6.28E2,1.555E3,1.12E2,1.42E2,1.88E2,9.9E1,3.1E1,6E0,2.57E2,3.71E2,1.494E3,6.1E1,1.09E2,3E0,1.01E2,4.1E1,9.7E1,9.1E1,2.1E1,7.8E1,2.7E1,4E0,3E0,3E0,7E0,2.5E2,3.29E2,4.2E1,1.425E3,6.9E1,1.8E1,4.3E1,6.5E1,4.4E1,6.5E1,3.6E1,3E0,3.8E1,2E1,7.7E1,5E0,8.6E1,1.8E1,3E0,2.7E1,5.1E1,2.2E1,5E0,3E0,4E0,1E1,2.4E2,1.2E1,3.17E2,3.3E1,9E0,7.37E2,6.88E2,3.9E1,3E1,3.8E1,5E0,3.8E1,6E0,5.2E1,1.3E1,3.1E1,5E0,2.1E1,1.7E1,1.2E1,8E0,6E0,7.1E1,5.6E1,3E1,3E0,1.5E1,1E1,1.7E1,4.1E1,1E1,1.6E1,6E0],"tree_param":{"num_deleted":"0","num_feature":"23","num_nodes":"91","size_leaf_vector":"1"}},{"base_weights":[2.1363203E-3,9.3161E-2,-3.7862328E-1,3.0954024E-2,5.8095586E-1,-4.3251204E-1,6.1776046E-2,-1.620903E-1,1.07840195E-1,7.6193386E-1,4.4021407E-1,-4.4837266E-1,8.7060876E-2,1.6792712E-1,-6.234279E-1,8.2293713E-1,-1.850926E-1,7.093744E-2,3.3377552E-1,9.251656E-1,5.488171E-1,2.8951806E-1,6.797254E-1,-4.1562793E-1,-1.0381235E0,5.0373405E-1,1.9091838E-3,-1.1589978E-1,-5.0286464E-3,9.377416E-2,3.0519148E-2,-1.6996805E-1,-1.6802043E-1,-4.2400025E-2,2.0208494E-1,3.4681182E-2,1.1288583E-1,9.600507E-2,4.3452475E-2,3.5424823E-1,6.118648E-2,8.790701E-2,7.1406907E-1,7.3937315E-1,5.1048434E-1,-2.3723528E-1,-5.1709867E-1,-1.3847229E-1,-6.845008E-1,6.619786E-1,1.6881642E-1,-1.1844243E-1,3.8723543E-1,-1.2894571E-2,-6.465817E-2,-3.385622E-2,2.1489551E-2,3.2661397E-2,8.939402E-4,-2.8212223E-2,2.6960049E-2,4.600286E-2,1.022396E-2,-9.805501E-3,4.434751E-2,7.871174E-2,2.861975E-2,7.725623E-2,2.3912428E-2,3.0277444E-2,6.363749E-2,-6.638467E-2,-9.912661E-3,-6.893918E-2,-3.941673E-2,2.8118098E-4,-1.2128367E-1,7.523932E-2,2.9065475E-2,-0E0,3.1415414E-2,-4.2870466E-2,1.0165105E-2,5.2740276E-2,5.517552E-3],"categories":[],"categories_nodes":[],"categories_segments":[],"categories_sizes":[],"default_left":[0,0,0,0,0,0,0,0,0,0,0,0,0,0,0,0,0,0,0,0,0,0,0,0,0,0,0,0,0,0,0,0,0,0,0,0,0,0,0,0,0,0,0,0,0,0,0,0,0,0,0,0,0,0,0,0,0,0,0,0,0,0,0,0,0,0,0,0,0,0,0,0,0,0,0,0,0,0,0,0,0,0,0,0,0],"id":17,"left_children":[1,3,5,7,9,11,13,15,17,19,21,23,-1,25,27,29,31,33,35,37,39,41,43,45,47,49,51,-1,-1,-1,-1,-1,53,55,57,-1,59,-1,-1,61,-1,63,65,67,69,71,73,-1,75,77,79,81,83,-1,-1,-1,-1,-1,-1,-1,-1,-1,-1,-1,-1,-1,-1,-1,-1,-1,-1,-1,-1,-1,-1,-1,-1,-1,-1,-1,-1,-1,-1,-1,-1],"loss_changes":[9.61148E1,6.786159E1,1.2760719E1,2.9503983E1,5.988579E0,1.0206909E1,4.350513E0,1.2912896E1,1.1791967E1,3.1366844E0,4.939823E0,8.538055E0,0E0,2.8474727E0,2.276448E0,3.622303E-1,1.3852591E1,1.8217981E1,4.8791695E-1,4.703369E-1,2.9999256E-1,7.6461005E0,5.2793503E-2,7.929535E0,1.7868042E0,7.061486E-1,1.7422311E0,0E0,0E0,0E0,0E0,0E0,1.010518E1,5.014931E1,1.3625191E1,0E0,8.795542E-1,0E0,0E0,2.9660344E-1,0E0,4.243723E0,5.738001E-1,3.4500313E-1,1.8408394E-1,9.579489E0,5.656273E0,0E0,5.2082596E0,4.6312332E-2,1.9527836E-1,1.988311E0,3.3153808E-1,0E0,0E0,0E0,0E0,0E0,0E0,0E0,0E0,0E0,0E0,0E0,0E0,0E0,0E0,0E0,0E0,0E0,0E0,0E0,0E0,0E0,0E0,0E0,0E0,0E0,0E0,0E0,0E0,0E0,0E0,0E0,0E0],"parents":[2147483647,0,0,1,1,2,2,3,3,4,4,5,5,6,6,7,7,8,8,9,9,10,10,11,11,13,13,14,14,15,15,16,16,17,17,18,18,19,19,20,20,21,21,22,22,23,23,24,24,25,25,26,26,32,32,33,33,34,34,36,36,39,39,41,41,42,42,43,43,44,44,45,45,46,46,48,48,49,49,50,50,51,51,52,52],"right_children":[2,4,6,8,10,12,14,16,18,20,22,24,-1,26,28,30,32,34,36,38,40,42,44,46,48,50,52,-1,-1,-1,-1,-1,54,56,58,-1,60,-1,-1,62,-1,64,66,68,70,72,74,-1,76,78,80,82,84,-1,-1,-1,-1,-1,-1,-1,-1,-1,-1,-1,-1,-1,-1,-1,-1,-1,-1,-1,-1,-1,-1,-1,-1,-1,-1,-1,-1,-1,-1,-1,-1],"split_conditions":[1E0,1E0,1E0,2E0,3E0,9E1,2.2E1,9E0,1E0,1E0,1E0,2.2E1,8.7060876E-2,1E0,4.5E1,3E0,1E1,9E0,5.5E1,2.2E1,1.18E2,1E0,1E0,1E0,3E1,2.51E2,2.74E2,-1.1589978E-1,-5.0286464E-3,9.377416E-2,3.0519148E-2,-1.6996805E-1,2.2E1,4.5E1,5E0,3.4681182E-2,7.5E1,9.600507E-2,4.3452475E-2,6.1E1,6.118648E-2,3E0,3E0,2.2E1,3E0,3E0,8E0,-1.3847229E-1,6.3E1,1E0,3.07E2,1E0,3.34E2,-1.2894571E-2,-6.465817E-2,-3.385622E-2,2.1489551E-2,3.2661397E-2,8.939402E-4,-2.8212223E-2,2.6960049E-2,4.600286E-2,1.022396E-2,-9.805501E-3,4.434751E-2,7.871174E-2,2.861975E-2,7.725623E-2,2.3912428E-2,3.0277444E-2,6.363749E-2,-6.638467E-2,-9.912661E-3,-6.893918E-2,-3.941673E-2,2.8118098E-4,-1.2128367E-1,7.523932E-2,2.9065475E-2,-0E0,3.1415414E-2,-4.2870466E-2,1.0165105E-2,5.2740276E-2,5.517552E-3],"split_indices":[18,6,6,4,3,12,12,5,9,8,8,12,0,17,12,3,5,4,12,12,5,7,7,17,5,5,5,0,0,0,0,0,12,5,3,0,12,0,0,5,0,20,20,12,20,3,4,0,5,21,5,8,5,0,0,0,0,0,0,0,0,0,0,0,0,0,0,0,0,0,0,0,0,0,0,0,0,0,0,0,0,0,0,0,0],"split_type":[0,0,0,0,0,0,0,0,0,0,0,0,0,0,0,0,0,0,0,0,0,0,0,0,0,0,0,0,0,0,0,0,0,0,0,0,0,0,0,0,0,0,0,0,0,0,0,0,0,0,0,0,0,0,0,0,0,0,0,0,0,0,0,0,0,0,0,0,0,0,0,0,0,0,0,0,0,0,0,0,0,0,0,0,0],"sum_hessian":[2.772E3,2.238E3,5.34E2,1.986E3,2.52E2,4.76E2,5.8E1,5.65E2,1.421E3,1.08E2,1.44E2,4.71E2,5E0,5.1E1,7E0,1.2E1,5.53E2,1.223E3,1.98E2,5.9E1,4.9E1,9E1,5.4E1,4.48E2,2.3E1,1.6E1,3.5E1,3E0,4E0,9E0,3E0,5E0,5.48E2,6.56E2,5.67E2,1.86E2,1.2E1,5.4E1,5E0,1.4E1,3.5E1,6.2E1,2.8E1,3.7E1,1.7E1,1.64E2,2.84E2,1E1,1.3E1,1E1,6E0,2.7E1,8E0,5.08E2,4E1,3.05E2,3.51E2,3.44E2,2.23E2,3E0,9E0,9E0,5E0,4.1E1,2.1E1,2.3E1,5E0,3.4E1,3E0,8E0,9E0,3.9E1,1.25E2,1.16E2,1.68E2,6E0,7E0,7E0,3E0,3E0,3E0,1.1E1,1.6E1,5E0,3E0],"tree_param":{"num_deleted":"0","num_feature":"23","num_nodes":"85","size_leaf_vector":"1"}},{"base_weights":[-1.2735817E-2,-7.0108265E-2,4.5041746E-1,-3.174511E-1,3.0092606E-2,6.1414254E-1,3.2263574E-1,-1.722975E-1,-4.1028446E-1,9.868607E-2,-4.81739E-1,8.084881E-1,3.9386052E-1,2.0622183E-1,5.943493E-1,-8.354167E-2,-5.7245064E-1,-4.4232392E-1,3.5632083E-1,1.8618993E-2,2.242363E-1,-7.8112096E-1,-3.503687E-1,8.51193E-2,3.586257E-1,4.661331E-1,9.014374E-2,5.3230084E-2,5.15931E-1,6.6242844E-1,-3.6320742E-2,-1.3320346E-1,4.1938713E-1,8.672359E-2,-7.499652E-1,-3.9846262E-1,-1.1171483E0,-7.967368E-2,1.0075778E0,-1.3129182E-1,2.2337756E-1,4.1596764E-1,9.847551E-2,-8.8465385E-2,-3.4842342E-1,-3.9431992E-1,7.388627E-2,-6.6341977E-3,6.468747E-2,2.990192E-1,6.179001E-1,2.767236E-2,-3.3147696E-2,-3.2782504E-1,3.285252E-1,5.984223E-1,-1.7769054E-2,8.4145314E-1,3.99923E-1,-9.04237E-3,-1.0817199E-1,1.5889597E-1,-1.4770587E-2,-9.92367E-2,-4.6006914E-2,-3.1514507E-2,-7.039776E-2,-1.832757E-1,1.295404E-2,1.7788844E-1,-4.3542925E-3,-1.628899E-1,4.3542185E-3,5.0246377E-2,-2.8175322E-2,6.389942E-2,3.2940105E-2,1.6395435E-2,-8.907821E-3,8.214903E-3,-1.1598837E-1,-1.2685261E-3,-5.363494E-2,4.792696E-2,-1.7648421E-2,2.5259627E-2,7.6066874E-2,-0E0,-5.580557E-3,-4.9421173E-2,1.1018211E-1,-5.681595E-2,5.1523086E-2,6.9688834E-2,4.1938003E-2,1.06794395E-1,6.5073915E-2,4.4666916E-2,5.2897907E-3],"categories":[],"categories_nodes":[],"categories_segments":[],"categories_sizes":[],"default_left":[0,0,0,0,0,0,0,0,0,0,0,0,0,0,0,0,0,0,0,0,0,0,0,0,0,0,0,0,0,0,0,0,0,0,0,0,0,0,0,0,0,0,0,0,0,0,0,0,0,0,0,0,0,0,0,0,0,0,0,0,0,0,0,0,0,0,0,0,0,0,0,0,0,0,0,0,0,0,0,0,0,0,0,0,0,0,0,0,0,0,0,0,0,0,0,0,0,0,0],"id":18,"left_children":[1,3,5,7,9,11,13,15,17,19,21,23,25,27,29,31,33,35,37,39,41,43,45,-1,47,49,51,53,55,57,-1,59,61,-1,63,65,67,-1,69,71,73,75,77,-1,79,81,-1,-1,-1,83,85,-1,87,89,91,93,-1,95,97,-1,-1,-1,-1,-1,-1,-1,-1,-1,-1,-1,-1,-1,-1,-1,-1,-1,-1,-1,-1,-1,-1,-1,-1,-1,-1,-1,-1,-1,-1,-1,-1,-1,-1,-1,-1,-1,-1,-1,-1],"loss_changes":[7.450209E1,6.1899067E1,6.172783E0,9.573128E0,6.2396694E1,5.297989E0,5.3644733E0,9.937584E0,1.0924194E1,1.5733763E1,7.872444E0,9.185524E-1,1.3291292E0,5.8384895E0,3.6603832E0,5.8467345E0,1.3672501E1,1.1864334E1,1.4340719E1,2.9475546E1,1.4616087E1,2.3907623E0,7.3421E0,0E0,1.0809404E0,1.042388E0,3.5558212E-1,9.02449E0,2.4943323E0,1.8420982E0,0E0,8.4279375E0,1.4307208E1,0E0,2.63068E0,9.781773E0,2.271127E1,0E0,9.979825E0,1.4528474E2,5.7399498E1,4.3455772E0,4.5659885E0,0E0,5.094551E0,7.689375E0,0E0,0E0,0E0,2.4290237E0,1.0625324E0,0E0,5.682379E-3,9.047236E0,8.658243E0,2.4840736E-1,0E0,3.4263992E-1,2.8330183E-1,0E0,0E0,0E0,0E0,0E0,0E0,0E0,0E0,0E0,0E0,0E0,0E0,0E0,0E0,0E0,0E0,0E0,0E0,0E0,0E0,0E0,0E0,0E0,0E0,0E0,0E0,0E0,0E0,0E0,0E0,0E0,0E0,0E0,0E0,0E0,0E0,0E0,0E0,0E0,0E0],"parents":[2147483647,0,0,1,1,2,2,3,3,4,4,5,5,6,6,7,7,8,8,9,9,10,10,11,11,12,12,13,13,14,14,15,15,16,16,17,17,18,18,19,19,20,20,21,21,22,22,24,24,25,25,26,26,27,27,28,28,29,29,31,31,32,32,34,34,35,35,36,36,38,38,39,39,40,40,41,41,42,42,44,44,45,45,49,49,50,50,52,52,53,53,54,54,55,55,57,57,58,58],"right_children":[2,4,6,8,10,12,14,16,18,20,22,24,26,28,30,32,34,36,38,40,42,44,46,-1,48,50,52,54,56,58,-1,60,62,-1,64,66,68,-1,70,72,74,76,78,-1,80,82,-1,-1,-1,84,86,-1,88,90,92,94,-1,96,98,-1,-1,-1,-1,-1,-1,-1,-1,-1,-1,-1,-1,-1,-1,-1,-1,-1,-1,-1,-1,-1,-1,-1,-1,-1,-1,-1,-1,-1,-1,-1,-1,-1,-1,-1,-1,-1,-1,-1,-1],"split_conditions":[1E0,2E0,3E0,1E0,1E0,1E0,1E0,8E0,7.5E1,9E0,2E0,2.2E1,1E0,1E0,2.2E1,3.4E2,2.8E1,2.2E1,7.4E1,4.6E1,4.6E1,1E0,1E0,8.51193E-2,5.5E1,2E0,2E0,2E0,3.22E2,1E0,-3.6320742E-2,3.27E2,2E0,8.672359E-2,9E0,2.97E2,2E0,-7.967368E-2,2.08E2,4E0,3E0,2E0,1.07E2,-8.8465385E-2,1E0,3E0,7.388627E-2,-6.6341977E-3,6.468747E-2,2.51E2,1.18E2,2.767236E-2,2.41E2,4.5E1,6.2E1,1.92E2,-1.7769054E-2,1.18E2,1E0,-9.04237E-3,-1.0817199E-1,1.5889597E-1,-1.4770587E-2,-9.92367E-2,-4.6006914E-2,-3.1514507E-2,-7.039776E-2,-1.832757E-1,1.295404E-2,1.7788844E-1,-4.3542925E-3,-1.628899E-1,4.3542185E-3,5.0246377E-2,-2.8175322E-2,6.389942E-2,3.2940105E-2,1.6395435E-2,-8.907821E-3,8.214903E-3,-1.1598837E-1,-1.2685261E-3,-5.363494E-2,4.792696E-2,-1.7648421E-2,2.5259627E-2,7.6066874E-2,-0E0,-5.580557E-3,-4.9421173E-2,1.1018211E-1,-5.681595E-2,5.1523086E-2,6.9688834E-2,4.1938003E-2,1.06794395E-1,6.5073915E-2,4.4666916E-2,5.2897907E-3],"split_indices":[6,4,3,4,17,8,7,3,12,4,2,12,17,8,12,5,5,12,5,5,5,9,10,0,12,2,2,2,5,8,0,5,2,0,3,5,2,0,5,3,2,2,5,0,10,2,0,0,0,5,5,0,5,12,5,5,0,5,17,0,0,0,0,0,0,0,0,0,0,0,0,0,0,0,0,0,0,0,0,0,0,0,0,0,0,0,0,0,0,0,0,0,0,0,0,0,0,0,0],"split_type":[0,0,0,0,0,0,0,0,0,0,0,0,0,0,0,0,0,0,0,0,0,0,0,0,0,0,0,0,0,0,0,0,0,0,0,0,0,0,0,0,0,0,0,0,0,0,0,0,0,0,0,0,0,0,0,0,0,0,0,0,0,0,0,0,0,0,0,0,0,0,0,0,0,0,0,0,0,0,0,0,0,0,0,0,0,0,0,0,0,0,0,0,0,0,0,0,0,0,0],"sum_hessian":[2.803E3,2.495E3,3.08E2,7.19E2,1.776E3,1.33E2,1.75E2,2.82E2,4.37E2,1.567E3,2.09E2,6.9E1,6.4E1,1.24E2,5.1E1,2.32E2,5E1,4.2E2,1.7E1,9.58E2,6.09E2,6.2E1,1.47E2,6.2E1,7E0,5.1E1,1.3E1,8.4E1,4E1,4.8E1,3E0,2.12E2,2E1,5E0,4.5E1,3.96E2,2.4E1,6E0,1.1E1,5.53E2,4.05E2,2.4E2,3.69E2,4.9E1,1.3E1,1.42E2,5E0,3E0,4E0,2.6E1,2.5E1,5E0,8E0,3.5E1,4.9E1,3.6E1,4E0,2.7E1,2.1E1,2.04E2,8E0,6E0,1.4E1,2.3E1,2.2E1,3.13E2,8.3E1,1.5E1,9E0,6E0,5E0,5.7E1,4.96E2,2.61E2,1.44E2,6.5E1,1.75E2,2.74E2,9.5E1,9E0,4E0,3.9E1,1.03E2,1.9E1,7E0,8E0,1.7E1,4E0,4E0,3.2E1,3E0,8E0,4.1E1,2.1E1,1.5E1,1E1,1.7E1,1.8E1,3E0],"tree_param":{"num_deleted":"0","num_feature":"23","num_nodes":"99","size_leaf_vector":"1"}},{"base_weights":[-1.8328415E-2,3.4652546E-2,-3.935782E-1,-1.16762534E-1,9.846282E-2,-3.237786E-2,-4.2881653E-1,-9.200071E-2,-6.136349E-1,1.1880458E-1,-4.3653333E-1,-4.078094E-1,2.0827153E-1,-6.6258997E-1,-3.6352766E-1,-1.818873E-1,3.787779E-2,-7.9775184E-1,9.416806E-2,1.4628898E-1,-2.243446E-1,-1.7288832E-1,1.5854697E-1,-7.6936895E-1,5.7304185E-2,3.9824593E-1,-6.2618755E-2,-1.06592774E-1,-4.906306E-1,-3.3114827E-1,-9.643937E-2,-1.10906996E-1,-4.7571754E-1,-1.7212152E-1,1.70993E-1,-4.564738E-1,-1.2274851E0,2.3124991E-1,4.864335E-2,-8.728163E-1,6.363528E-2,2.6045787E-1,-6.684497E-2,-3.826185E-1,-1.22884E-1,-0E0,9.738804E-2,-5.681433E-1,-1.215167E-1,-2.7880785E-1,-6.1285967E-1,-2.2236278E-2,1.5151831E-2,-6.666948E-2,-5.692957E-3,-6.1870593E-4,-7.041334E-2,1.0652605E-2,7.5421564E-2,-7.3240645E-2,4.4261888E-2,-1.5410595E-1,-5.8813836E-2,-8.529849E-5,4.0004224E-2,5.824649E-2,-1.9262607E-3,-2.2142129E-1,-1.6470201E-2,2.7066207E-2,-2.0236336E-2,1.5597559E-2,9.406388E-2,-6.973157E-2,2.7332958E-4,-5.050517E-2,4.9722143E-2,-7.438748E-2,-2.5180379E-2,3.893697E-2,-5.4366924E-2,-3.0668303E-2,5.2724104E-2,-2.6908884E-2,-8.1484616E-2],"categories":[],"categories_nodes":[],"categories_segments":[],"categories_sizes":[],"default_left":[0,0,0,0,0,0,0,0,0,0,0,0,0,0,0,0,0,0,0,0,0,0,0,0,0,0,0,0,0,0,0,0,0,0,0,0,0,0,0,0,0,0,0,0,0,0,0,0,0,0,0,0,0,0,0,0,0,0,0,0,0,0,0,0,0,0,0,0,0,0,0,0,0,0,0,0,0,0,0,0,0,0,0,0,0],"id":19,"left_children":[1,3,5,7,9,11,13,15,17,19,21,23,25,27,29,31,33,35,-1,37,39,-1,41,43,-1,45,-1,-1,47,49,-1,51,53,55,57,59,61,63,65,67,69,71,-1,73,-1,75,-1,77,79,81,83,-1,-1,-1,-1,-1,-1,-1,-1,-1,-1,-1,-1,-1,-1,-1,-1,-1,-1,-1,-1,-1,-1,-1,-1,-1,-1,-1,-1,-1,-1,-1,-1,-1,-1],"loss_changes":[5.5438255E1,2.3603874E1,4.331192E0,8.78069E0,1.8727556E1,2.9960048E0,4.4490356E0,8.088256E0,1.0473075E1,1.5652592E1,4.888142E1,5.070783E0,3.3970997E0,3.9683342E0,4.3761024E0,8.418746E0,7.9403305E0,3.8177013E0,0E0,1.2695225E1,2.3106318E1,0E0,3.8416233E0,1.1456838E0,0E0,3.9429035E0,0E0,0E0,1.2639351E0,3.234499E0,0E0,9.722136E0,6.208023E0,9.635313E0,6.375736E0,5.066847E0,1.4869995E0,3.216555E1,2.6022299E1,3.549218E1,4.7975225E0,2.5862963E0,0E0,9.2024803E-1,0E0,3.0138378E0,0E0,1.9367552E0,2.3838377E0,4.6783304E0,2.1720753E0,0E0,0E0,0E0,0E0,0E0,0E0,0E0,0E0,0E0,0E0,0E0,0E0,0E0,0E0,0E0,0E0,0E0,0E0,0E0,0E0,0E0,0E0,0E0,0E0,0E0,0E0,0E0,0E0,0E0,0E0,0E0,0E0,0E0,0E0],"parents":[2147483647,0,0,1,1,2,2,3,3,4,4,5,5,6,6,7,7,8,8,9,9,10,10,11,11,12,12,13,13,14,14,15,15,16,16,17,17,19,19,20,20,22,22,23,23,25,25,28,28,29,29,31,31,32,32,33,33,34,34,35,35,36,36,37,37,38,38,39,39,40,40,41,41,43,43,45,45,47,47,48,48,49,49,50,50],"right_children":[2,4,6,8,10,12,14,16,18,20,22,24,26,28,30,32,34,36,-1,38,40,-1,42,44,-1,46,-1,-1,48,50,-1,52,54,56,58,60,62,64,66,68,70,72,-1,74,-1,76,-1,78,80,82,84,-1,-1,-1,-1,-1,-1,-1,-1,-1,-1,-1,-1,-1,-1,-1,-1,-1,-1,-1,-1,-1,-1,-1,-1,-1,-1,-1,-1,-1,-1,-1,-1,-1,-1],"split_conditions":[1E0,2E0,2.2E1,7.7E1,1E0,2E0,1.4E1,5.1E1,8.5E1,2.2E1,2E0,2.2E1,2E1,4E1,8.2E1,3.03E2,2E0,5E0,9.416806E-2,3E0,2E0,-1.7288832E-1,2.05E2,1.1E1,5.7304185E-2,1E0,-6.2618755E-2,-1.06592774E-1,9E0,2.93E2,-9.643937E-2,2E2,3.5E2,2.7E2,3.34E2,2.53E2,7E0,4.2E1,1.8E1,4.5E1,5E0,2.2E1,-6.684497E-2,7E0,-1.22884E-1,1.4E1,9.738804E-2,1E0,2E0,2.74E2,2E0,-2.2236278E-2,1.5151831E-2,-6.666948E-2,-5.692957E-3,-6.1870593E-4,-7.041334E-2,1.0652605E-2,7.5421564E-2,-7.3240645E-2,4.4261888E-2,-1.5410595E-1,-5.8813836E-2,-8.529849E-5,4.0004224E-2,5.824649E-2,-1.9262607E-3,-2.2142129E-1,-1.6470201E-2,2.7066207E-2,-2.0236336E-2,1.5597559E-2,9.406388E-2,-6.973157E-2,2.7332958E-4,-5.050517E-2,4.9722143E-2,-7.438748E-2,-2.5180379E-2,3.893697E-2,-5.4366924E-2,-3.0668303E-2,5.2724104E-2,-2.6908884E-2,-8.1484616E-2],"split_indices":[17,4,0,0,11,2,5,0,0,12,2,12,0,0,0,5,2,3,0,2,2,0,5,0,0,9,0,0,4,5,0,5,5,5,5,5,3,5,0,12,3,12,0,0,0,0,0,9,2,5,2,0,0,0,0,0,0,0,0,0,0,0,0,0,0,0,0,0,0,0,0,0,0,0,0,0,0,0,0,0,0,0,0,0,0],"split_type":[0,0,0,0,0,0,0,0,0,0,0,0,0,0,0,0,0,0,0,0,0,0,0,0,0,0,0,0,0,0,0,0,0,0,0,0,0,0,0,0,0,0,0,0,0,0,0,0,0,0,0,0,0,0,0,0,0,0,0,0,0,0,0,0,0,0,0,0,0,0,0,0,0,0,0,0,0,0,0,0,0,0,0,0,0],"sum_hessian":[2.785E3,2.441E3,3.44E2,7.23E2,1.718E3,3.1E1,3.13E2,6.9E2,3.3E1,1.656E3,6.2E1,1.2E1,1.9E1,6.6E1,2.47E2,4.08E2,2.82E2,3E1,3E0,1.534E3,1.22E2,1.9E1,4.3E1,9E0,3E0,1.6E1,3E0,1.8E1,4.8E1,2.36E2,1.1E1,3.3E2,7.8E1,1.09E2,1.73E2,1.8E1,1.2E1,8.19E2,7.15E2,3.7E1,8.5E1,3.9E1,4E0,6E0,3E0,1E1,6E0,3.9E1,9E0,2.01E2,3.5E1,2.32E2,9.8E1,5.3E1,2.5E1,8.4E1,2.5E1,1.57E2,1.6E1,1.4E1,4E0,7E0,5E0,3.45E2,4.74E2,8E1,6.35E2,1.2E1,2.5E1,4.8E1,3.7E1,3.5E1,4E0,3E0,3E0,5E0,5E0,2.4E1,1.5E1,4E0,5E0,1.95E2,6E0,1.4E1,2.1E1],"tree_param":{"num_deleted":"0","num_feature":"23","num_nodes":"85","size_leaf_vector":"1"}},{"base_weights":[9.276378E-3,-4.1451063E-2,3.9799708E-1,4.792968E-3,-3.8316727E-1,4.6098673E-1,-5.60761E-4,-8.841706E-2,9.800482E-2,-3.6517403E-1,-1.175312E-1,4.81585E-1,-3.9685816E-1,-2.5433254E-1,1.3146955E-1,-6.7327636E-1,-5.1923413E-3,2.4210078E-1,2.918558E-2,-1.8881066E-1,-4.4786105E-1,6.556031E-1,3.5661197E-1,-1.63401E-1,9.1450825E-2,-0E0,-8.239822E-2,1.781119E-1,-1.1736458E-2,-1.8111596E-2,-1.6071168E0,-1.5225054E-1,2.3493081E-1,2.6722437E-1,-2.975165E-1,-7.8855366E-2,1.4620131E-1,5.373596E-2,-2.1941794E-1,-6.9245297E-1,-3.4509793E-1,7.6823674E-2,4.907707E-1,3.1993073E-1,9.335339E-2,-1.8473175E-1,3.0568883E-2,3.127788E-1,6.81464E-2,5.2268873E-3,-1.4110029E-1,-1.9726673E-1,-7.202513E-2,5.261056E-3,-2.6032526E-2,5.2952994E-2,-3.0507166E-2,4.2318624E-2,1.7897388E-2,-7.687174E-2,5.9927113E-2,-4.3227407E-3,-1.0900863E-1,3.3082988E-2,1.3398187E-3,-9.133942E-2,-1.5921736E-2,-1.3586496E-1,-5.539179E-2,-6.3808106E-2,-2.1334669E-2,2.8465558E-2,5.622266E-2,3.5518672E-2,-3.5538938E-2,2.8602054E-2,-7.519892E-2,1.5078656E-2,5.3356864E-2,6.871179E-4,2.2525428E-2],"categories":[],"categories_nodes":[],"categories_segments":[],"categories_sizes":[],"default_left":[0,0,0,0,0,0,0,0,0,0,0,0,0,0,0,0,0,0,0,0,0,0,0,0,0,0,0,0,0,0,0,0,0,0,0,0,0,0,0,0,0,0,0,0,0,0,0,0,0,0,0,0,0,0,0,0,0,0,0,0,0,0,0,0,0,0,0,0,0,0,0,0,0,0,0,0,0,0,0,0,0],"id":20,"left_children":[1,3,5,7,9,11,13,15,17,19,-1,21,23,25,27,29,31,33,35,37,39,41,43,-1,-1,45,-1,47,-1,49,51,53,55,57,59,61,63,-1,65,67,69,-1,71,73,-1,75,-1,77,79,-1,-1,-1,-1,-1,-1,-1,-1,-1,-1,-1,-1,-1,-1,-1,-1,-1,-1,-1,-1,-1,-1,-1,-1,-1,-1,-1,-1,-1,-1,-1,-1],"loss_changes":[5.534368E1,3.9245262E1,8.180332E0,1.9002203E1,3.635727E0,5.147232E0,1.5534737E0,5.3130157E1,1.0814536E1,4.095413E0,0E0,5.6238174E0,1.292278E1,2.3597722E0,3.7516505E-1,8.301579E1,3.3856472E1,4.8621426E0,9.398992E0,2.1975915E0,4.608879E0,1.5949898E0,3.004263E0,0E0,0E0,7.4023485E-1,0E0,3.2561928E-1,0E0,8.150245E0,1.6464767E1,1.3207951E1,5.809066E1,4.516178E0,7.2386875E0,1.3746391E1,8.714517E0,0E0,3.590867E0,4.316786E0,5.221451E0,0E0,4.7695065E-1,3.7928076E0,0E0,2.397983E0,0E0,2.4453807E-1,1.292688E-1,0E0,0E0,0E0,0E0,0E0,0E0,0E0,0E0,0E0,0E0,0E0,0E0,0E0,0E0,0E0,0E0,0E0,0E0,0E0,0E0,0E0,0E0,0E0,0E0,0E0,0E0,0E0,0E0,0E0,0E0,0E0,0E0],"parents":[2147483647,0,0,1,1,2,2,3,3,4,4,5,5,6,6,7,7,8,8,9,9,11,11,12,12,13,13,14,14,15,15,16,16,17,17,18,18,19,19,20,20,21,21,22,22,25,25,27,27,29,29,30,30,31,31,32,32,33,33,34,34,35,35,36,36,38,38,39,39,40,40,42,42,43,43,45,45,47,47,48,48],"right_children":[2,4,6,8,10,12,14,16,18,20,-1,22,24,26,28,30,32,34,36,38,40,42,44,-1,-1,46,-1,48,-1,50,52,54,56,58,60,62,64,-1,66,68,70,-1,72,74,-1,76,-1,78,80,-1,-1,-1,-1,-1,-1,-1,-1,-1,-1,-1,-1,-1,-1,-1,-1,-1,-1,-1,-1,-1,-1,-1,-1,-1,-1,-1,-1,-1,-1,-1,-1],"split_conditions":[1E0,1E0,1E0,8E0,8E0,1E0,2E0,4.2E1,5E0,3.6E1,-1.175312E-1,3E0,2E0,3E0,7.6E1,2E0,1E0,1E0,3E0,5E0,3E1,1E0,3.5E2,-1.63401E-1,9.1450825E-2,2.77E2,-8.239822E-2,1E0,-1.1736458E-2,7.8E1,3E0,1.47E2,3E0,2E0,5.4E1,1E0,3.5E1,5.373596E-2,1E1,8E0,2E0,7.6823674E-2,1.18E2,3.37E2,9.335339E-2,2.05E2,3.0568883E-2,5E1,6.2E1,5.2268873E-3,-1.4110029E-1,-1.9726673E-1,-7.202513E-2,5.261056E-3,-2.6032526E-2,5.2952994E-2,-3.0507166E-2,4.2318624E-2,1.7897388E-2,-7.687174E-2,5.9927113E-2,-4.3227407E-3,-1.0900863E-1,3.3082988E-2,1.3398187E-3,-9.133942E-2,-1.5921736E-2,-1.3586496E-1,-5.539179E-2,-6.3808106E-2,-2.1334669E-2,2.8465558E-2,5.622266E-2,3.5518672E-2,-3.5538938E-2,2.8602054E-2,-7.519892E-2,1.5078656E-2,5.3356864E-2,6.871179E-4,2.2525428E-2],"split_indices":[6,17,17,4,3,11,2,5,3,0,0,3,2,3,0,4,21,11,2,0,5,8,5,0,0,5,0,8,0,0,2,5,2,2,0,11,0,0,0,4,2,0,5,5,0,5,0,0,0,0,0,0,0,0,0,0,0,0,0,0,0,0,0,0,0,0,0,0,0,0,0,0,0,0,0,0,0,0,0,0,0],"split_type":[0,0,0,0,0,0,0,0,0,0,0,0,0,0,0,0,0,0,0,0,0,0,0,0,0,0,0,0,0,0,0,0,0,0,0,0,0,0,0,0,0,0,0,0,0,0,0,0,0,0,0,0,0,0,0,0,0,0,0,0,0,0,0,0,0,0,0,0,0,0,0,0,0,0,0,0,0,0,0,0,0],"sum_hessian":[2.803E3,2.48E3,3.23E2,2.185E3,2.95E2,2.79E2,4.4E1,1.092E3,1.093E3,2.9E2,5E0,2.73E2,6E0,1.5E1,2.9E1,1.35E2,9.57E2,3.52E2,7.41E2,9.4E1,1.96E2,1.12E2,1.61E2,3E0,3E0,1.1E1,4E0,2.5E1,4E0,8E1,5.5E1,5.94E2,3.63E2,3.37E2,1.5E1,3.85E2,3.56E2,3E0,9.1E1,5.6E1,1.4E2,6.4E1,4.8E1,1.53E2,8E0,7E0,4E0,1E1,1.5E1,7.7E1,3E0,3.8E1,1.7E1,2.05E2,3.89E2,2.35E2,1.28E2,1.2E2,2.17E2,1E1,5E0,3.73E2,1.2E1,1.48E2,2.08E2,6E0,8.5E1,8E0,4.8E1,4.2E1,9.8E1,1.4E1,3.4E1,1.46E2,7E0,4E0,3E0,7E0,3E0,1.2E1,3E0],"tree_param":{"num_deleted":"0","num_feature":"23","num_nodes":"81","size_leaf_vector":"1"}},{"base_weights":[-4.737444E-3,6.3267075E-2,-3.0722484E-1,2.3973815E-2,3.7557808E-1,-3.514053E-1,5.701969E-2,-5.331192E-3,2.8437302E-1,5.3544545E-1,2.5296766E-1,-4.217216E-1,-1.9335602E-1,3.5891467E-1,-8.1214406E-2,-1.6767271E-1,7.7852555E-2,3.8583136E-1,-3.950869E-1,6.688287E-2,3.6867967E-1,1.1830759E-1,4.5939642E-1,-6.141087E-1,-3.0127177E-1,-3.0435923E-2,-4.2309928E-1,5.061366E-2,4.0975012E-2,-2.8976637E-1,3.0360281E-2,-2.81211E-1,3.1908244E-1,1.40059665E-2,3.2201174E-1,6.440922E-1,2.5588736E-1,-1.5623355E-1,-1.0409203E0,5.3954375E-1,2.2775672E-1,-1.9407079E-2,4.81142E-1,4.0397006E-1,6.9900684E-2,-1.6683346E-1,-7.1741277E-1,2.4355054E-1,-3.686136E-1,2.733557E-1,-2.4028437E-1,-8.875372E-2,-3.3088282E-1,-8.964441E-3,1.8635068E-2,-5.7454306E-1,1.6902644E-2,1.3777356E-1,-1.7672853E-1,-3.4437697E-2,1.3160107E-2,6.411388E-2,-1.7856548E-3,4.1602E-2,-2.2609476E-3,9.811675E-2,-2.8814754E-2,2.2919023E-2,1.0341912E-1,5.543205E-2,-3.5433192E-3,-2.5855575E-2,3.1827472E-2,-1.3015912E-1,-4.950193E-2,1.6039697E-2,6.357401E-2,4.1031186E-2,-3.0428614E-4,8.735018E-2,-9.271575E-3,6.322765E-2,6.844656E-3,5.304685E-2,3.0283883E-2,-4.704074E-2,2.9521076E-2,1.4369569E-2,-8.1919186E-2,3.4030923E-3,6.733739E-2,-1.19701445E-1,-2.8852275E-2,1.410303E-2,1.2386199E-1,-1.5209163E-2,-6.828089E-2,1.9163277E-2,-4.6543863E-2,-1.0965798E-1,-1.14094755E-2,1.2459072E-3,3.1863075E-2,-4.785153E-2,3.7250742E-3],"categories":[],"categories_nodes":[],"categories_segments":[],"categories_sizes":[],"default_left":[0,0,0,0,0,0,0,0,0,0,0,0,0,0,0,0,0,0,0,0,0,0,0,0,0,0,0,0,0,0,0,0,0,0,0,0,0,0,0,0,0,0,0,0,0,0,0,0,0,0,0,0,0,0,0,0,0,0,0,0,0,0,0,0,0,0,0,0,0,0,0,0,0,0,0,0,0,0,0,0,0,0,0,0,0,0,0,0,0,0,0,0,0,0,0,0,0,0,0,0,0,0,0,0,0],"id":21,"left_children":[1,3,5,7,9,11,13,15,17,19,21,23,25,27,29,31,33,35,37,-1,39,41,43,45,47,49,51,-1,53,55,57,59,61,63,65,67,69,71,73,75,77,79,81,83,-1,85,87,89,91,93,95,-1,97,-1,-1,99,-1,101,103,-1,-1,-1,-1,-1,-1,-1,-1,-1,-1,-1,-1,-1,-1,-1,-1,-1,-1,-1,-1,-1,-1,-1,-1,-1,-1,-1,-1,-1,-1,-1,-1,-1,-1,-1,-1,-1,-1,-1,-1,-1,-1,-1,-1,-1,-1],"loss_changes":[5.7373844E1,2.7881472E1,8.28883E0,1.5466932E1,4.7644653E0,4.935787E0,2.393921E0,2.458613E1,1.4283573E1,2.074236E0,3.9463453E0,7.022949E0,5.2942295E0,7.670884E-1,9.4223356E-1,3.4184654E1,1.8715132E1,5.752327E0,3.8826637E0,0E0,1.0283976E0,4.552597E0,3.6432552E-1,5.336529E0,7.2933903E0,5.481143E0,2.1113892E0,0E0,1.5929812E-1,1.9668137E0,5.987993E-1,1.3130508E1,1.2769837E1,1.4106273E1,1.0049733E2,9.185949E0,1.0591234E1,1.095927E0,1.7213011E-1,6.20811E-1,1.3059851E0,4.323135E0,1.4459639E0,3.828764E-1,0E0,3.522739E0,8.686623E0,1.8875852E0,1.1116865E1,4.1578665E0,1.8030603E0,0E0,3.7022562E0,0E0,0E0,1.9171567E0,0E0,3.7087366E-1,6.431365E-1,0E0,0E0,0E0,0E0,0E0,0E0,0E0,0E0,0E0,0E0,0E0,0E0,0E0,0E0,0E0,0E0,0E0,0E0,0E0,0E0,0E0,0E0,0E0,0E0,0E0,0E0,0E0,0E0,0E0,0E0,0E0,0E0,0E0,0E0,0E0,0E0,0E0,0E0,0E0,0E0,0E0,0E0,0E0,0E0,0E0,0E0],"parents":[2147483647,0,0,1,1,2,2,3,3,4,4,5,5,6,6,7,7,8,8,9,9,10,10,11,11,12,12,13,13,14,14,15,15,16,16,17,17,18,18,20,20,21,21,22,22,23,23,24,24,25,25,26,26,28,28,29,29,30,30,31,31,32,32,33,33,34,34,35,35,36,36,37,37,38,38,39,39,40,40,41,41,42,42,43,43,45,45,46,46,47,47,48,48,49,49,50,50,52,52,55,55,57,57,58,58],"right_children":[2,4,6,8,10,12,14,16,18,20,22,24,26,28,30,32,34,36,38,-1,40,42,44,46,48,50,52,-1,54,56,58,60,62,64,66,68,70,72,74,76,78,80,82,84,-1,86,88,90,92,94,96,-1,98,-1,-1,100,-1,102,104,-1,-1,-1,-1,-1,-1,-1,-1,-1,-1,-1,-1,-1,-1,-1,-1,-1,-1,-1,-1,-1,-1,-1,-1,-1,-1,-1,-1,-1,-1,-1,-1,-1,-1,-1,-1,-1,-1,-1,-1,-1,-1,-1,-1,-1,-1],"split_conditions":[1E0,1E0,1E0,1E0,3E0,9E0,1E0,2E0,7.1E1,1E0,1E0,2E0,5E0,2.51E2,2E0,9E0,1E0,1.8E1,8.3E1,6.688287E-2,4.3E1,1E0,3.1E2,2.8E1,2E1,4.2E1,2.4E1,5.061366E-2,4E1,2.77E2,3E0,3E2,4.6E1,2E1,3E0,1E1,2E0,8.1E1,8.5E1,1.05E2,2.05E2,2.2E1,5.3E1,1.43E2,6.9900684E-2,1.2E1,1E0,1.4E1,2.7E1,4E1,8.1E1,-8.875372E-2,5.6E1,-8.964441E-3,1.8635068E-2,1E0,1.6902644E-2,5.4E1,1E0,-3.4437697E-2,1.3160107E-2,6.411388E-2,-1.7856548E-3,4.1602E-2,-2.2609476E-3,9.811675E-2,-2.8814754E-2,